%YAML:1.0
---
opencv_ml_svm:
   format: 3
   svmType: C_SVC
   kernel:
      type: RBF
      gamma: 5.0624999999999998e-01
   C: 1.2500000000000000e+01
   term_criteria: { epsilon:1.1920928955078125e-07, iterations:1000 }
   var_count: 324
   class_count: 13
   class_labels: !!opencv-matrix
      rows: 13
      cols: 1
      dt: i
      data: [ 0, 1, 2, 3, 4, 5, 6, 7, 8, 9, 10, 11, 12 ]
   sv_total: 628
   support_vectors:
      - [ 5.56315444e-02, 1.59080595e-01, 1.07460819e-01, 2.44856551e-02,
          1.02482781e-01, 7.00917542e-01, 6.70632601e-01, 1.55691598e-02,
          2.59934906e-02, 2.40447540e-02, 1.55224234e-01, 4.29369897e-01,
          1.96463335e-02, 5.94639778e-01, 6.39162600e-01, 1.43592924e-01,
          2.51882132e-02, 2.86816359e-02, 3.39752913e-01, 4.08206284e-01,
          4.08206284e-01, 3.98997366e-02, 4.08206284e-01, 2.11244613e-01,
          3.26257378e-01, 3.53764445e-01, 3.20598781e-01, 4.30612639e-02,
          1.04317337e-01, 5.28926291e-02, 1.04321018e-02, 2.12490298e-02,
          6.98498070e-01, 6.98498070e-01, 3.04359887e-02, 1.44045968e-02,
          6.67697415e-02, 4.87559259e-01, 4.89713192e-01, 1.08752541e-01,
          1.91294178e-01, 4.89713192e-01, 3.92148435e-01, 2.53696710e-01,
          8.20706114e-02, 1.07062561e-03, 5.04315972e-01, 6.08678281e-01,
          3.68114300e-02, 4.82348399e-03, 8.52742512e-03, 5.43618977e-01,
          2.68531412e-01, 3.95223638e-03, 1.24710582e-01, 2.44480893e-01,
          4.33555469e-02, 3.09427846e-02, 1.93617661e-02, 2.77583510e-01,
          6.46319270e-01, 6.46319270e-01, 5.00197373e-02, 4.39281046e-01,
          4.39281046e-01, 4.39281046e-01, 8.34335014e-02, 4.14283164e-02,
          8.10522735e-02, 1.71866298e-01, 4.23031688e-01, 4.39281046e-01,
          1.70611560e-01, 5.42254865e-01, 5.42254865e-01, 3.18052955e-02,
          2.10033613e-03, 1.54466396e-02, 3.79900098e-01, 3.50135535e-01,
          3.30488086e-01, 1.24710582e-01, 2.44480893e-01, 4.33555469e-02,
          3.09427846e-02, 1.93617661e-02, 2.77583510e-01, 6.46319270e-01,
          6.46319270e-01, 5.00197373e-02, 4.39281046e-01, 4.39281046e-01,
          4.39281046e-01, 8.34335014e-02, 4.14283164e-02, 8.10522735e-02,
          1.71866298e-01, 4.23031688e-01, 4.39281046e-01, 1.70611560e-01,
          5.42254865e-01, 5.42254865e-01, 3.18052955e-02, 2.10033613e-03,
          1.54466396e-02, 3.79900098e-01, 3.50135535e-01, 3.30488086e-01,
          1.55534493e-02, 3.53494808e-02, 1.17638998e-01, 1.24030754e-01,
          6.57355338e-02, 9.30975452e-02, 6.19281352e-01, 6.19281352e-01,
          4.27896678e-01, 1.20442167e-01, 4.93557274e-01, 5.06139278e-01,
          5.06139278e-01, 4.53880280e-02, 1.01497442e-01, 1.26611635e-01,
          2.24903584e-01, 3.81460547e-01, 4.00230169e-01, 4.00230169e-01,
          4.00230169e-01, 4.00230169e-01, 3.96694317e-02, 4.62900251e-02,
          1.76578835e-01, 4.00230169e-01, 4.00230169e-01, 2.56384350e-02,
          6.59318566e-02, 2.09744543e-01, 5.34718819e-02, 3.41335200e-02,
          2.70487890e-02, 5.70808575e-02, 6.84163272e-01, 6.84163272e-01,
          1.26121745e-01, 1.01606466e-01, 4.07300740e-01, 5.15645266e-01,
          6.21080622e-02, 2.71888375e-02, 2.14260072e-02, 5.15645266e-01,
          5.15645266e-01, 2.54271418e-01, 3.30301449e-02, 2.61626631e-01,
          5.75774550e-01, 4.15693521e-01, 2.72424221e-01, 3.42111401e-02,
          1.11725107e-01, 5.17563462e-01, 3.39752913e-01, 4.08206284e-01,
          4.08206284e-01, 3.98997366e-02, 4.08206284e-01, 2.11244613e-01,
          3.26257378e-01, 3.53764445e-01, 3.20598781e-01, 1.11799769e-01,
          6.70757517e-02, 1.50033191e-01, 4.19622183e-01, 4.01531726e-01,
          8.03175643e-02, 4.92372245e-01, 4.92372245e-01, 3.56303215e-01,
          1.86327994e-01, 2.11124510e-01, 5.12279630e-01, 5.12279630e-01,
          5.12279630e-01, 2.83243619e-02, 1.50632903e-01, 1.87206924e-01,
          2.64124781e-01, 1.07062561e-03, 5.04315972e-01, 6.08678281e-01,
          3.68114300e-02, 4.82348399e-03, 8.52742512e-03, 5.43618977e-01,
          2.68531412e-01, 3.95223638e-03, 5.77843841e-03, 4.98854369e-02,
          3.35201383e-01, 4.10671383e-02, 2.29576156e-02, 7.88305979e-03,
          6.61895216e-01, 6.61895216e-01, 4.89174575e-03, 4.38833125e-02,
          4.07892726e-02, 4.16147560e-01, 4.16147560e-01, 4.16147560e-01,
          1.44662291e-01, 4.16147560e-01, 4.16147560e-01, 3.24703336e-01,
          1.70611560e-01, 5.42254865e-01, 5.42254865e-01, 3.18052955e-02,
          2.10033613e-03, 1.54466396e-02, 3.79900098e-01, 3.50135535e-01,
          3.30488086e-01, 4.46482867e-01, 4.19142216e-01, 2.65285492e-01,
          7.77669437e-03, 2.28362042e-03, 9.16118920e-03, 5.03567398e-01,
          5.03567398e-01, 2.05565378e-01, 4.69023317e-01, 3.09592992e-01,
          4.65934947e-02, 2.76077762e-02, 9.52039734e-02, 8.68263692e-02,
          4.69023317e-01, 4.69023317e-01, 4.69023317e-01, 1.70611560e-01,
          5.42254865e-01, 5.42254865e-01, 3.18052955e-02, 2.10033613e-03,
          1.54466396e-02, 3.79900098e-01, 3.50135535e-01, 3.30488086e-01,
          4.46482867e-01, 4.19142216e-01, 2.65285492e-01, 7.77669437e-03,
          2.28362042e-03, 9.16118920e-03, 5.03567398e-01, 5.03567398e-01,
          2.05565378e-01, 4.69023317e-01, 3.09592992e-01, 4.65934947e-02,
          2.76077762e-02, 9.52039734e-02, 8.68263692e-02, 4.69023317e-01,
          4.69023317e-01, 4.69023317e-01, 4.00230169e-01, 4.00230169e-01,
          4.00230169e-01, 4.00230169e-01, 3.96694317e-02, 4.62900251e-02,
          1.76578835e-01, 4.00230169e-01, 4.00230169e-01, 4.19748396e-01,
          4.19748396e-01, 1.19297728e-01, 8.68444517e-03, 3.72872353e-02,
          4.19748396e-01, 4.19748396e-01, 4.19748396e-01, 3.14905822e-01,
          3.77649456e-01, 3.24278980e-01, 2.23646194e-01, 1.40353218e-01,
          1.79289579e-02, 4.59741801e-01, 4.59741801e-01, 4.59741801e-01,
          2.08582014e-01, 2.54271418e-01, 3.30301449e-02, 2.61626631e-01,
          5.75774550e-01, 4.15693521e-01, 2.72424221e-01, 3.42111401e-02,
          1.11725107e-01, 5.17563462e-01, 4.78892654e-01, 1.05249614e-01,
          1.57392174e-02, 2.16518030e-01, 3.38779300e-01, 5.99919260e-01,
          4.70396429e-01, 6.73787445e-02, 7.73251578e-02, 5.14281034e-01,
          5.14281034e-01, 1.86062202e-01, 9.38152969e-02, 4.95333895e-02,
          5.14281034e-01, 3.88484627e-01, 5.15869036e-02, 4.41952385e-02 ]
      - [ 4.66525316e-01, 4.66525316e-01, 1.63260892e-01, 1.15400394e-02,
          1.08658500e-01, 4.66525316e-01, 4.66525316e-01, 4.36579362e-02,
          2.90270090e-01, 4.41587120e-01, 4.41587120e-01, 4.41587120e-01,
          1.20748477e-02, 1.42721206e-01, 4.41587120e-01, 4.13461417e-01,
          8.79744068e-02, 1.28012791e-01, 3.83263916e-01, 3.83263916e-01,
          8.89945403e-02, 7.36211017e-02, 3.18565011e-01, 3.83263916e-01,
          3.83263916e-01, 3.83263916e-01, 3.83263916e-01, 1.57407880e-01,
          4.76841271e-01, 4.76841271e-01, 1.10479549e-01, 1.25483647e-01,
          4.76841271e-01, 4.76841271e-01, 1.52939215e-01, 9.80178714e-02,
          9.04672071e-02, 4.23460692e-01, 4.23460692e-01, 4.23460692e-01,
          9.82252881e-02, 1.65874869e-01, 4.23460692e-01, 4.23460692e-01,
          2.32008934e-01, 3.66460592e-01, 3.66460592e-01, 1.91108957e-01,
          1.40579313e-01, 3.66460592e-01, 3.66460592e-01, 3.66460592e-01,
          3.66460592e-01, 3.66460592e-01, 5.40721901e-02, 1.59912497e-01,
          2.87556916e-01, 2.24684983e-01, 1.63224384e-01, 4.25850004e-01,
          5.55177629e-01, 5.55177629e-01, 9.13936123e-02, 3.05688977e-01,
          2.69371241e-01, 4.68230069e-01, 4.68230069e-01, 4.68230069e-01,
          3.09712708e-01, 2.12604284e-01, 1.03008918e-01, 1.40943140e-01,
          4.70098406e-01, 4.42165077e-01, 6.59731627e-02, 2.74910271e-01,
          4.70098406e-01, 4.70098406e-01, 1.47656098e-01, 4.93600555e-02,
          1.80693775e-01, 5.40721901e-02, 1.59912497e-01, 2.87556916e-01,
          2.24684983e-01, 1.63224384e-01, 4.25850004e-01, 5.55177629e-01,
          5.55177629e-01, 9.13936123e-02, 3.05688977e-01, 2.69371241e-01,
          4.68230069e-01, 4.68230069e-01, 4.68230069e-01, 3.09712708e-01,
          2.12604284e-01, 1.03008918e-01, 1.40943140e-01, 4.70098406e-01,
          4.42165077e-01, 6.59731627e-02, 2.74910271e-01, 4.70098406e-01,
          4.70098406e-01, 1.47656098e-01, 4.93600555e-02, 1.80693775e-01,
          1.32970996e-02, 1.33286089e-01, 2.23123044e-01, 1.99894652e-01,
          3.38518888e-01, 4.83527720e-01, 4.83527720e-01, 4.83527720e-01,
          2.67384738e-01, 4.51077551e-01, 4.51077551e-01, 1.78996712e-01,
          5.91794737e-02, 4.51077551e-01, 4.51077551e-01, 2.67094135e-01,
          1.18476190e-01, 2.46358290e-01, 4.15625423e-01, 4.15625423e-01,
          4.04886961e-01, 2.63123780e-01, 4.15625423e-01, 4.15625423e-01,
          1.87646598e-01, 6.26249611e-02, 1.80469677e-01, 8.88603777e-02,
          2.80299813e-01, 3.80027771e-01, 4.07003134e-01, 3.02682728e-01,
          2.46104583e-01, 3.40455621e-01, 4.07003134e-01, 4.07003134e-01,
          3.99538606e-01, 3.99538606e-01, 3.99538606e-01, 3.99538606e-01,
          1.21194907e-01, 1.46614283e-01, 4.51432876e-02, 3.99538606e-01,
          3.99538606e-01, 4.79449362e-01, 1.34567484e-01, 5.11099696e-02,
          4.09528255e-01, 4.79449362e-01, 2.42797304e-02, 4.87778010e-03,
          3.41392487e-01, 4.79449362e-01, 3.83263916e-01, 3.83263916e-01,
          8.89945403e-02, 7.36211017e-02, 3.18565011e-01, 3.83263916e-01,
          3.83263916e-01, 3.83263916e-01, 3.83263916e-01, 3.04358542e-01,
          3.86377454e-01, 3.86377454e-01, 3.86377454e-01, 2.55612254e-01,
          1.36778474e-01, 2.70226300e-01, 3.86377454e-01, 3.86377454e-01,
          1.28647864e-01, 1.43578261e-01, 3.06638777e-01, 3.79695982e-01,
          3.79695982e-01, 3.79695982e-01, 3.79695982e-01, 3.79695982e-01,
          3.79695982e-01, 3.66460592e-01, 3.66460592e-01, 1.91108957e-01,
          1.40579313e-01, 3.66460592e-01, 3.66460592e-01, 3.66460592e-01,
          3.66460592e-01, 3.66460592e-01, 3.01592827e-01, 4.11922187e-01,
          1.61855012e-01, 3.16350669e-01, 2.87980825e-01, 4.11922187e-01,
          4.11922187e-01, 4.11922187e-01, 1.30382642e-01, 4.33902740e-01,
          4.33902740e-01, 1.24989972e-01, 2.41740823e-01, 3.57533455e-01,
          4.33902740e-01, 4.33902740e-01, 1.38788000e-01, 1.46376088e-01,
          4.70098406e-01, 4.42165077e-01, 6.59731627e-02, 2.74910271e-01,
          4.70098406e-01, 4.70098406e-01, 1.47656098e-01, 4.93600555e-02,
          1.80693775e-01, 4.18619215e-01, 4.18619215e-01, 1.18117206e-01,
          3.90705690e-02, 4.18619215e-01, 4.18619215e-01, 2.66070455e-01,
          1.82582393e-01, 4.18619215e-01, 3.85677546e-01, 3.85677546e-01,
          1.32876769e-01, 2.32963637e-02, 2.92344064e-01, 3.85677546e-01,
          3.85677546e-01, 3.85677546e-01, 3.85677546e-01, 4.70098406e-01,
          4.42165077e-01, 6.59731627e-02, 2.74910271e-01, 4.70098406e-01,
          4.70098406e-01, 1.47656098e-01, 4.93600555e-02, 1.80693775e-01,
          4.18619215e-01, 4.18619215e-01, 1.18117206e-01, 3.90705690e-02,
          4.18619215e-01, 4.18619215e-01, 2.66070455e-01, 1.82582393e-01,
          4.18619215e-01, 3.85677546e-01, 3.85677546e-01, 1.32876769e-01,
          2.32963637e-02, 2.92344064e-01, 3.85677546e-01, 3.85677546e-01,
          3.85677546e-01, 3.85677546e-01, 4.15625423e-01, 4.15625423e-01,
          4.04886961e-01, 2.63123780e-01, 4.15625423e-01, 4.15625423e-01,
          1.87646598e-01, 6.26249611e-02, 1.80469677e-01, 3.93450618e-01,
          3.79016370e-01, 3.23963284e-01, 3.93450618e-01, 3.93450618e-01,
          1.02425124e-02, 2.85808090e-02, 3.56831312e-01, 3.93450618e-01,
          3.23334299e-02, 1.50831297e-01, 3.23367417e-01, 3.17203313e-01,
          5.54889627e-02, 5.91075718e-02, 5.03130972e-01, 5.03130972e-01,
          5.03130972e-01, 4.79449362e-01, 1.34567484e-01, 5.11099696e-02,
          4.09528255e-01, 4.79449362e-01, 2.42797304e-02, 4.87778010e-03,
          3.41392487e-01, 4.79449362e-01, 4.28678989e-01, 4.28678989e-01,
          2.49077201e-01, 1.97690323e-01, 4.28374141e-01, 4.28678989e-01,
          1.45229816e-01, 5.51812015e-02, 3.68318886e-01, 4.51963484e-01,
          4.51963484e-01, 2.55953014e-01, 6.06470518e-02, 2.65641082e-02,
          4.51963484e-01, 4.51963484e-01, 3.29331279e-01, 6.83320872e-03 ]
      - [ 4.11322266e-01, 3.76636207e-01, 4.11322266e-01, 7.82210454e-02,
          2.65957359e-02, 1.74552381e-01, 4.11322266e-01, 3.74162793e-01,
          4.11322266e-01, 3.20008546e-01, 1.39070898e-01, 1.12012081e-01,
          1.26920603e-02, 8.21460597e-03, 6.36938438e-02, 6.10562623e-01,
          5.98779082e-01, 3.52139771e-01, 4.82399702e-01, 1.84200004e-01,
          1.72940493e-01, 0., 3.38915968e-03, 2.22354773e-02,
          4.82399702e-01, 4.82399702e-01, 4.82399702e-01, 1.61628246e-01,
          4.78422225e-01, 1.47224545e-01, 1.30151823e-01, 4.78422225e-01,
          4.78422225e-01, 4.78422225e-01, 1.21779166e-01, 1.00862831e-02,
          4.60725695e-01, 4.60725695e-01, 2.74754073e-02, 2.10742839e-02,
          2.47694522e-01, 4.44885731e-01, 4.60725695e-01, 2.16016144e-01,
          2.26838320e-01, 5.18890619e-01, 1.78535834e-01, 5.67713082e-02,
          7.67104551e-02, 2.87989855e-01, 5.18890619e-01, 2.05274582e-01,
          1.44972771e-01, 5.18890619e-01, 1.94594935e-01, 4.95751768e-01,
          4.56888974e-01, 1.23969782e-02, 6.78333864e-02, 4.95751768e-01,
          4.95751768e-01, 7.97913820e-02, 1.63407484e-03, 3.91833574e-01,
          3.91833574e-01, 1.61637336e-01, 4.24684063e-02, 2.16688961e-01,
          3.91833574e-01, 3.91833574e-01, 3.91833574e-01, 3.91833574e-01,
          4.04086590e-01, 1.94530606e-01, 1.98817387e-01, 2.00360700e-01,
          4.04086590e-01, 4.04086590e-01, 3.73964161e-01, 2.92327166e-01,
          4.04086590e-01, 1.94594935e-01, 4.95751768e-01, 4.56888974e-01,
          1.23969782e-02, 6.78333864e-02, 4.95751768e-01, 4.95751768e-01,
          7.97913820e-02, 1.63407484e-03, 3.91833574e-01, 3.91833574e-01,
          1.61637336e-01, 4.24684063e-02, 2.16688961e-01, 3.91833574e-01,
          3.91833574e-01, 3.91833574e-01, 3.91833574e-01, 4.04086590e-01,
          1.94530606e-01, 1.98817387e-01, 2.00360700e-01, 4.04086590e-01,
          4.04086590e-01, 3.73964161e-01, 2.92327166e-01, 4.04086590e-01,
          3.89074497e-02, 4.22654301e-01, 4.22654301e-01, 4.22654301e-01,
          1.85988590e-01, 7.19477907e-02, 4.22654301e-01, 4.22654301e-01,
          2.47614145e-01, 4.43616509e-02, 1.48164764e-01, 3.97464246e-01,
          3.97464246e-01, 3.97464246e-01, 3.97464246e-01, 3.97464246e-01,
          3.97464246e-01, 1.55697048e-01, 3.98055017e-01, 1.80535540e-01,
          3.98055017e-01, 3.07933599e-01, 3.98055017e-01, 3.98055017e-01,
          1.56856641e-01, 2.27517724e-01, 3.98055017e-01, 4.51078825e-02,
          1.14670821e-01, 4.43120390e-01, 4.43120390e-01, 4.43120390e-01,
          2.03699335e-01, 3.23016435e-01, 4.43120390e-01, 2.21661583e-01,
          4.67360318e-02, 4.88179959e-02, 1.57933265e-01, 5.20630538e-01,
          5.20630538e-01, 1.43201843e-01, 3.36390257e-01, 4.78019357e-01,
          2.47002497e-01, 8.14423561e-02, 7.55931363e-02, 2.86079854e-01,
          5.09379864e-01, 5.26097834e-01, 5.26097834e-01, 2.15814918e-01,
          1.44089788e-01, 1.42103419e-01, 4.82399702e-01, 1.84200004e-01,
          1.72940493e-01, 0., 3.38915968e-03, 2.22354773e-02,
          4.82399702e-01, 4.82399702e-01, 4.82399702e-01, 3.93121779e-01,
          3.93121779e-01, 3.93121779e-01, 3.93121779e-01, 3.93121779e-01,
          2.10209832e-01, 1.51771873e-01, 3.97667699e-02, 3.93121779e-01,
          1.15250930e-01, 5.04120767e-01, 5.04120767e-01, 5.04120767e-01,
          2.28079662e-01, 1.44494653e-01, 1.99956894e-01, 9.69512761e-02,
          3.11428696e-01, 5.18890619e-01, 1.78535834e-01, 5.67713082e-02,
          7.67104551e-02, 2.87989855e-01, 5.18890619e-01, 2.05274582e-01,
          1.44972771e-01, 5.18890619e-01, 4.01701033e-01, 2.17635974e-01,
          4.01701033e-01, 4.01701033e-01, 2.76115030e-01, 3.62165779e-01,
          2.00497448e-01, 2.35720038e-01, 4.01701033e-01, 2.33638674e-01,
          1.11530043e-01, 4.76215750e-01, 4.76215750e-01, 1.39517203e-01,
          3.34768603e-03, 4.01952304e-02, 4.76215750e-01, 4.76215750e-01,
          4.04086590e-01, 1.94530606e-01, 1.98817387e-01, 2.00360700e-01,
          4.04086590e-01, 4.04086590e-01, 3.73964161e-01, 2.92327166e-01,
          4.04086590e-01, 3.61201733e-01, 3.61201733e-01, 3.61201733e-01,
          3.61201733e-01, 3.61201733e-01, 2.91776270e-01, 2.97361493e-01,
          2.00084537e-01, 3.61201733e-01, 3.04252654e-01, 3.76188725e-01,
          3.76188725e-01, 3.76188725e-01, 9.42905843e-02, 2.14582592e-01,
          3.76188725e-01, 3.76188725e-01, 3.75693798e-01, 4.04086590e-01,
          1.94530606e-01, 1.98817387e-01, 2.00360700e-01, 4.04086590e-01,
          4.04086590e-01, 3.73964161e-01, 2.92327166e-01, 4.04086590e-01,
          3.61201733e-01, 3.61201733e-01, 3.61201733e-01, 3.61201733e-01,
          3.61201733e-01, 2.91776270e-01, 2.97361493e-01, 2.00084537e-01,
          3.61201733e-01, 3.04252654e-01, 3.76188725e-01, 3.76188725e-01,
          3.76188725e-01, 9.42905843e-02, 2.14582592e-01, 3.76188725e-01,
          3.76188725e-01, 3.75693798e-01, 3.98055017e-01, 1.80535540e-01,
          3.98055017e-01, 3.07933599e-01, 3.98055017e-01, 3.98055017e-01,
          1.56856641e-01, 2.27517724e-01, 3.98055017e-01, 3.57232302e-01,
          2.07343534e-01, 3.47272187e-01, 3.57232302e-01, 3.57232302e-01,
          2.78630555e-01, 3.42245728e-01, 3.57232302e-01, 3.57232302e-01,
          3.58812273e-01, 4.19198900e-01, 4.19198900e-01, 2.96827167e-01,
          2.70539105e-01, 4.19198900e-01, 4.19198900e-01, 3.55783626e-02,
          3.98948751e-02, 8.14423561e-02, 7.55931363e-02, 2.86079854e-01,
          5.09379864e-01, 5.26097834e-01, 5.26097834e-01, 2.15814918e-01,
          1.44089788e-01, 1.42103419e-01, 3.98010910e-01, 3.98010910e-01,
          3.98010910e-01, 3.79463464e-01, 3.98010910e-01, 3.98010910e-01,
          2.00965032e-01, 1.13282405e-01, 8.21470022e-02, 4.85432714e-01,
          4.85432714e-01, 3.77639413e-01, 4.34046201e-02, 3.36382687e-01,
          4.85432714e-01, 1.43918350e-01, 2.88187005e-02, 9.50003937e-02 ]
      - [ 4.29890931e-01, 4.29890931e-01, 8.72754306e-03, 4.18551452e-03,
          3.65294553e-02, 3.94307226e-01, 4.29890931e-01, 4.29890931e-01,
          3.15554440e-01, 5.35337925e-01, 5.35337925e-01, 2.56789532e-02,
          1.68797988e-02, 1.14186749e-01, 5.35337925e-01, 2.37018213e-01,
          4.00968939e-02, 2.51247764e-01, 5.71297586e-01, 5.71297586e-01,
          9.63541400e-03, 2.13358384e-02, 9.19559523e-02, 5.12510121e-01,
          9.05833617e-02, 6.97906762e-02, 2.38299638e-01, 2.27605641e-01,
          3.42841536e-01, 4.74893868e-01, 6.40460700e-02, 1.24360465e-01,
          4.84501034e-01, 4.84501034e-01, 2.52487451e-01, 2.17927426e-01,
          4.41110194e-01, 4.41110194e-01, 4.41110194e-01, 1.44917220e-01,
          4.41110194e-01, 4.41110194e-01, 3.05053908e-02, 7.99266621e-03,
          2.65957005e-02, 4.26235259e-01, 4.26235259e-01, 4.26235259e-01,
          2.76646048e-01, 4.26235259e-01, 4.26235259e-01, 3.76476571e-02,
          4.91174012e-02, 8.36474746e-02, 7.81885460e-02, 1.35260701e-01,
          4.35156554e-01, 3.29918623e-01, 1.94594815e-01, 4.35156554e-01,
          4.35156554e-01, 4.35156554e-01, 2.59009808e-01, 9.65635702e-02,
          4.57271963e-01, 4.57271963e-01, 3.65635484e-01, 4.57271963e-01,
          4.57271963e-01, 1.00792214e-01, 6.53717443e-02, 3.99429500e-02,
          2.38057282e-02, 6.45525336e-01, 6.45525336e-01, 6.58831224e-02,
          2.17225924e-01, 3.04988116e-01, 1.18895225e-01, 2.82299258e-02,
          1.02073876e-02, 7.81885460e-02, 1.35260701e-01, 4.35156554e-01,
          3.29918623e-01, 1.94594815e-01, 4.35156554e-01, 4.35156554e-01,
          4.35156554e-01, 2.59009808e-01, 9.65635702e-02, 4.57271963e-01,
          4.57271963e-01, 3.65635484e-01, 4.57271963e-01, 4.57271963e-01,
          1.00792214e-01, 6.53717443e-02, 3.99429500e-02, 2.38057282e-02,
          6.45525336e-01, 6.45525336e-01, 6.58831224e-02, 2.17225924e-01,
          3.04988116e-01, 1.18895225e-01, 2.82299258e-02, 1.02073876e-02,
          2.71259826e-02, 4.24119011e-02, 3.43926817e-01, 3.01373780e-01,
          5.39820567e-02, 9.27266479e-02, 3.40762973e-01, 6.11217916e-01,
          5.30124366e-01, 2.87659857e-02, 4.97051299e-01, 4.97051299e-01,
          4.20711070e-01, 2.21343294e-01, 2.25849405e-01, 3.52255344e-01,
          2.59011358e-01, 1.78658873e-01, 2.36798469e-02, 4.97250319e-01,
          4.97250319e-01, 4.97250319e-01, 4.97250319e-01, 3.20270136e-02,
          5.82348071e-02, 2.45573856e-02, 2.05255076e-02, 2.86480803e-02,
          3.59173976e-02, 8.96281898e-02, 4.31871623e-01, 4.31871623e-01,
          2.30165929e-01, 4.31871623e-01, 4.31871623e-01, 4.31871623e-01,
          1.49231106e-01, 1.91169798e-01, 4.50793684e-01, 4.51820701e-01,
          3.19474936e-01, 7.44412318e-02, 1.15864016e-01, 4.51820701e-01,
          4.51820701e-01, 2.76701331e-01, 1.08210124e-01, 3.20203483e-01,
          4.93947268e-01, 4.93947268e-01, 1.55472368e-01, 2.43034698e-02,
          2.18057841e-01, 4.93947268e-01, 5.71297586e-01, 5.71297586e-01,
          9.63541400e-03, 2.13358384e-02, 9.19559523e-02, 5.12510121e-01,
          9.05833617e-02, 6.97906762e-02, 2.38299638e-01, 5.50516188e-01,
          1.28485262e-01, 3.45348641e-02, 1.52908470e-02, 2.12200031e-01,
          1.37079373e-01, 5.95293678e-02, 5.50516188e-01, 5.50516188e-01,
          7.12579787e-02, 4.93760109e-02, 7.55703971e-02, 5.52997105e-02,
          5.10841966e-01, 7.52343088e-02, 7.19314814e-02, 5.94133377e-01,
          5.94133377e-01, 4.26235259e-01, 4.26235259e-01, 4.26235259e-01,
          2.76646048e-01, 4.26235259e-01, 4.26235259e-01, 3.76476571e-02,
          4.91174012e-02, 8.36474746e-02, 6.35283515e-02, 5.97432703e-02,
          1.40952215e-01, 4.07778412e-01, 4.07778412e-01, 4.07778412e-01,
          4.07778412e-01, 3.70185792e-01, 4.07778412e-01, 1.60279050e-02,
          1.01273069e-02, 4.00032066e-02, 4.31298494e-01, 4.31298494e-01,
          2.52269655e-01, 4.31298494e-01, 4.31298494e-01, 4.31298494e-01,
          2.38057282e-02, 6.45525336e-01, 6.45525336e-01, 6.58831224e-02,
          2.17225924e-01, 3.04988116e-01, 1.18895225e-01, 2.82299258e-02,
          1.02073876e-02, 6.78497925e-02, 5.10512479e-02, 1.20096356e-01,
          2.68016666e-01, 1.34238809e-01, 1.14307113e-01, 6.39343917e-01,
          6.39343917e-01, 2.27032036e-01, 3.99132103e-01, 2.29263846e-02,
          3.59129794e-02, 3.99132103e-01, 3.99132103e-01, 3.85487556e-01,
          3.99132103e-01, 2.21505314e-01, 3.99132103e-01, 2.38057282e-02,
          6.45525336e-01, 6.45525336e-01, 6.58831224e-02, 2.17225924e-01,
          3.04988116e-01, 1.18895225e-01, 2.82299258e-02, 1.02073876e-02,
          6.78497925e-02, 5.10512479e-02, 1.20096356e-01, 2.68016666e-01,
          1.34238809e-01, 1.14307113e-01, 6.39343917e-01, 6.39343917e-01,
          2.27032036e-01, 3.99132103e-01, 2.29263846e-02, 3.59129794e-02,
          3.99132103e-01, 3.99132103e-01, 3.85487556e-01, 3.99132103e-01,
          2.21505314e-01, 3.99132103e-01, 2.36798469e-02, 4.97250319e-01,
          4.97250319e-01, 4.97250319e-01, 4.97250319e-01, 3.20270136e-02,
          5.82348071e-02, 2.45573856e-02, 2.05255076e-02, 4.04214174e-01,
          1.57755930e-02, 5.62043265e-02, 2.22527981e-01, 4.40956324e-01,
          3.88564654e-02, 4.40956324e-01, 4.40956324e-01, 4.40956324e-01,
          5.72384536e-01, 2.74633337e-03, 2.03158055e-03, 4.69178893e-02,
          5.72384536e-01, 3.87833416e-02, 6.75813034e-02, 5.59273027e-02,
          5.72384536e-01, 2.76701331e-01, 1.08210124e-01, 3.20203483e-01,
          4.93947268e-01, 4.93947268e-01, 1.55472368e-01, 2.43034698e-02,
          2.18057841e-01, 4.93947268e-01, 2.03913659e-01, 3.75926076e-03,
          1.39667895e-02, 4.11604285e-01, 7.98912883e-01, 5.73786348e-02,
          2.39179526e-02, 7.17499405e-02, 3.65437597e-01, 1.70417160e-01,
          6.29670394e-04, 4.47885785e-03, 1.72435716e-01, 9.21764374e-01,
          1.33203134e-01, 3.26437056e-02, 3.02033834e-02, 2.50273079e-01 ]
      - [ 6.73575521e-01, 6.73575521e-01, 2.23386273e-01, 1.49739310e-01,
          1.03379130e-01, 1.54886926e-02, 2.10537529e-03, 1.07581085e-02,
          4.99715954e-02, 6.42353237e-01, 6.42353237e-01, 2.91289333e-02,
          2.98711527e-02, 1.94945350e-01, 3.11349154e-01, 2.80416571e-02,
          1.99425872e-02, 1.74598470e-01, 5.26881874e-01, 1.29618138e-01,
          7.91533366e-02, 7.74805322e-02, 3.11157495e-01, 5.26881874e-01,
          1.46028504e-01, 1.21293485e-01, 5.26881874e-01, 5.70973873e-01,
          5.70973873e-01, 5.70973873e-01, 4.04081047e-02, 3.48281041e-02,
          1.80038661e-02, 5.46431094e-02, 7.44086504e-02, 6.76208958e-02,
          3.81416708e-01, 3.81416708e-01, 1.72813997e-01, 4.75895032e-02,
          3.01973343e-01, 3.81416708e-01, 3.81416708e-01, 3.81416708e-01,
          3.81416708e-01, 3.76947820e-01, 3.00525963e-01, 3.76947820e-01,
          2.04069123e-01, 3.76947820e-01, 3.76947820e-01, 3.41899455e-01,
          1.92172915e-01, 3.76947820e-01, 1.02820478e-01, 5.69963098e-01,
          5.69963098e-01, 5.69963098e-01, 1.99449081e-02, 3.82771902e-02,
          3.48679610e-02, 5.11099361e-02, 5.89226931e-02, 2.54459351e-01,
          2.51439571e-01, 3.76684040e-01, 2.09234565e-01, 3.70310754e-01,
          3.76684040e-01, 3.76684040e-01, 3.46110880e-01, 3.76684040e-01,
          4.59958762e-01, 1.86404839e-01, 1.11957915e-01, 2.46742696e-01,
          4.59958762e-01, 4.59958762e-01, 9.43559855e-02, 1.79139882e-01,
          4.59958762e-01, 1.02820478e-01, 5.69963098e-01, 5.69963098e-01,
          5.69963098e-01, 1.99449081e-02, 3.82771902e-02, 3.48679610e-02,
          5.11099361e-02, 5.89226931e-02, 2.54459351e-01, 2.51439571e-01,
          3.76684040e-01, 2.09234565e-01, 3.70310754e-01, 3.76684040e-01,
          3.76684040e-01, 3.46110880e-01, 3.76684040e-01, 4.59958762e-01,
          1.86404839e-01, 1.11957915e-01, 2.46742696e-01, 4.59958762e-01,
          4.59958762e-01, 9.43559855e-02, 1.79139882e-01, 4.59958762e-01,
          4.69789177e-01, 1.22666031e-01, 4.69789177e-01, 4.69789177e-01,
          7.87404180e-02, 5.72527274e-02, 1.00875214e-01, 2.78925478e-01,
          4.69789177e-01, 7.92166144e-02, 1.44000635e-01, 3.86966914e-01,
          3.86966914e-01, 3.66533667e-01, 2.93357819e-01, 3.86966914e-01,
          3.86966914e-01, 3.86966914e-01, 3.76905024e-01, 2.55663663e-01,
          3.55832815e-01, 3.76905024e-01, 3.76905024e-01, 3.12669396e-01,
          1.64845020e-01, 3.33298624e-01, 3.76905024e-01, 4.12061363e-01,
          4.12061363e-01, 2.47785568e-01, 4.12061363e-01, 4.12061363e-01,
          5.17505556e-02, 7.76035804e-03, 2.87705839e-01, 4.12061363e-01,
          1.53911382e-01, 5.64696193e-02, 6.42381832e-02, 4.87954348e-01,
          4.87954348e-01, 8.09709877e-02, 7.18912929e-02, 4.87954348e-01,
          4.87954348e-01, 4.58153963e-01, 3.17782946e-02, 1.88137442e-02,
          4.58153963e-01, 4.58153963e-01, 2.11550400e-01, 9.34453458e-02,
          3.17732632e-01, 4.58153963e-01, 5.26881874e-01, 1.29618138e-01,
          7.91533366e-02, 7.74805322e-02, 3.11157495e-01, 5.26881874e-01,
          1.46028504e-01, 1.21293485e-01, 5.26881874e-01, 3.89814466e-01,
          2.24562481e-01, 4.18983221e-01, 2.93608040e-01, 1.25873819e-01,
          3.81841153e-01, 1.37613341e-01, 4.18983221e-01, 4.18983221e-01,
          4.06387150e-01, 1.91801414e-01, 2.92121738e-01, 1.18319772e-01,
          1.49244040e-01, 6.42917976e-02, 4.06085178e-02, 5.76590478e-01,
          5.76590478e-01, 3.76947820e-01, 3.00525963e-01, 3.76947820e-01,
          2.04069123e-01, 3.76947820e-01, 3.76947820e-01, 3.41899455e-01,
          1.92172915e-01, 3.76947820e-01, 3.66855621e-01, 3.66855621e-01,
          3.66855621e-01, 3.66855621e-01, 1.55105069e-01, 2.94188410e-01,
          3.66855621e-01, 2.79700160e-01, 3.66855621e-01, 9.74348858e-02,
          1.59574479e-01, 5.23177743e-01, 2.64587015e-01, 4.36543487e-02,
          4.26050201e-02, 2.54844189e-01, 5.23177743e-01, 5.23177743e-01,
          4.59958762e-01, 1.86404839e-01, 1.11957915e-01, 2.46742696e-01,
          4.59958762e-01, 4.59958762e-01, 9.43559855e-02, 1.79139882e-01,
          4.59958762e-01, 3.87911558e-01, 2.79219687e-01, 3.69938493e-01,
          3.87911558e-01, 3.87911558e-01, 1.12692237e-01, 1.27397135e-01,
          3.87911558e-01, 3.87911558e-01, 1.64884940e-01, 2.76343167e-01,
          4.22268629e-01, 4.01255310e-01, 9.73956287e-02, 4.22268629e-01,
          4.22268629e-01, 4.22268629e-01, 9.21644643e-02, 4.59958762e-01,
          1.86404839e-01, 1.11957915e-01, 2.46742696e-01, 4.59958762e-01,
          4.59958762e-01, 9.43559855e-02, 1.79139882e-01, 4.59958762e-01,
          3.87911558e-01, 2.79219687e-01, 3.69938493e-01, 3.87911558e-01,
          3.87911558e-01, 1.12692237e-01, 1.27397135e-01, 3.87911558e-01,
          3.87911558e-01, 1.64884940e-01, 2.76343167e-01, 4.22268629e-01,
          4.01255310e-01, 9.73956287e-02, 4.22268629e-01, 4.22268629e-01,
          4.22268629e-01, 9.21644643e-02, 3.76905024e-01, 2.55663663e-01,
          3.55832815e-01, 3.76905024e-01, 3.76905024e-01, 3.12669396e-01,
          1.64845020e-01, 3.33298624e-01, 3.76905024e-01, 3.39146048e-01,
          3.39146048e-01, 3.39146048e-01, 3.39146048e-01, 3.39146048e-01,
          3.39146048e-01, 3.39146048e-01, 3.39146048e-01, 2.76497751e-01,
          2.52566546e-01, 5.08101165e-01, 3.82142514e-01, 1.01645842e-01,
          2.79460996e-01, 5.08101165e-01, 4.22110587e-01, 4.42304276e-02,
          1.43236918e-02, 4.58153963e-01, 3.17782946e-02, 1.88137442e-02,
          4.58153963e-01, 4.58153963e-01, 2.11550400e-01, 9.34453458e-02,
          3.17732632e-01, 4.58153963e-01, 4.73773330e-01, 2.39694178e-01,
          4.61059026e-02, 5.64499795e-02, 4.73773330e-01, 4.73773330e-01,
          3.86336632e-02, 1.82112291e-01, 4.73773330e-01, 4.38745797e-01,
          4.38745797e-01, 4.38745797e-01, 3.68288904e-02, 3.31768930e-01,
          4.38745797e-01, 4.65380587e-02, 2.45940939e-01, 2.27037653e-01 ]
      - [ 9.37317833e-02, 2.73770869e-01, 4.75869715e-01, 3.04884225e-01,
          4.75869715e-01, 4.75869715e-01, 3.52481693e-01, 9.13137868e-02,
          8.13566521e-02, 5.17969787e-01, 1.10464938e-01, 1.34357661e-01,
          3.21256705e-02, 5.17969787e-01, 5.17969787e-01, 2.40047932e-01,
          9.21019763e-02, 3.04231346e-01, 4.89222199e-01, 2.33338960e-02,
          6.44186139e-02, 1.30467772e-01, 4.89222199e-01, 4.89222199e-01,
          1.14382945e-01, 5.44129089e-02, 4.89222199e-01, 2.47184768e-01,
          4.35638726e-01, 4.35638726e-01, 8.35313499e-02, 2.76290715e-01,
          4.35638726e-01, 4.35638726e-01, 2.43805572e-01, 1.80744052e-01,
          4.90357131e-01, 4.90357131e-01, 4.90357131e-01, 1.97538827e-02,
          1.13263853e-01, 1.60330310e-01, 1.54428408e-01, 7.97211081e-02,
          4.52353686e-01, 4.95854378e-01, 2.07590926e-02, 1.50929380e-03,
          2.12827045e-02, 4.95854378e-01, 4.95854378e-01, 1.01270035e-01,
          2.04835106e-02, 4.95854378e-01, 1.72498181e-01, 3.92740071e-01,
          3.97204965e-01, 3.92897844e-01, 1.77709702e-02, 1.62049457e-01,
          3.97204965e-01, 3.97204965e-01, 3.97204965e-01, 5.30154184e-02,
          4.32172537e-01, 5.44294536e-01, 2.96694990e-02, 3.84422652e-02,
          1.39904022e-01, 5.44294536e-01, 4.30506527e-01, 7.21145868e-02,
          2.89448321e-01, 1.56308189e-01, 5.70856147e-02, 2.99679525e-02,
          4.54600900e-01, 4.54600900e-01, 4.54600900e-01, 4.54600900e-01,
          2.37574801e-01, 1.72498181e-01, 3.92740071e-01, 3.97204965e-01,
          3.92897844e-01, 1.77709702e-02, 1.62049457e-01, 3.97204965e-01,
          3.97204965e-01, 3.97204965e-01, 5.30154184e-02, 4.32172537e-01,
          5.44294536e-01, 2.96694990e-02, 3.84422652e-02, 1.39904022e-01,
          5.44294536e-01, 4.30506527e-01, 7.21145868e-02, 2.89448321e-01,
          1.56308189e-01, 5.70856147e-02, 2.99679525e-02, 4.54600900e-01,
          4.54600900e-01, 4.54600900e-01, 4.54600900e-01, 2.37574801e-01,
          3.82169902e-01, 4.26782668e-01, 4.26782668e-01, 1.81234255e-01,
          3.58514339e-02, 3.15184332e-02, 2.93231130e-01, 4.26782668e-01,
          4.26782668e-01, 3.65339637e-01, 4.13062066e-01, 4.13062066e-01,
          5.27198799e-02, 6.96153939e-02, 4.09092903e-02, 4.13062066e-01,
          4.13062066e-01, 4.13062066e-01, 4.53774989e-01, 4.53774989e-01,
          3.11349705e-02, 7.74376735e-04, 2.39002705e-02, 2.01451719e-01,
          4.53774989e-01, 4.53774989e-01, 3.60134125e-01, 3.39679569e-02,
          1.67634785e-01, 4.51641291e-01, 4.51641291e-01, 4.07284081e-01,
          1.30178317e-01, 1.96071789e-01, 4.51641291e-01, 3.64723325e-01,
          1.35421097e-01, 1.34792894e-01, 4.74549979e-01, 4.74549979e-01,
          3.40475768e-01, 4.74549979e-01, 2.37770990e-01, 1.96608871e-01,
          2.68412799e-01, 1.51107103e-01, 5.05953170e-02, 3.49742658e-02,
          4.97192666e-02, 1.25155509e-01, 6.66894317e-01, 6.66894317e-01,
          2.12359563e-01, 1.18310437e-01, 4.89222199e-01, 2.33338960e-02,
          6.44186139e-02, 1.30467772e-01, 4.89222199e-01, 4.89222199e-01,
          1.14382945e-01, 5.44129089e-02, 4.89222199e-01, 4.85941887e-01,
          4.54718396e-02, 1.43476114e-01, 4.85941887e-01, 4.85941887e-01,
          1.48455441e-01, 2.99817808e-02, 7.06925765e-02, 4.85941887e-01,
          4.82952356e-01, 3.16371508e-02, 2.33771741e-01, 4.82952356e-01,
          4.82019812e-01, 1.61476359e-02, 6.24335147e-02, 1.19297132e-01,
          4.71494228e-01, 4.95854378e-01, 2.07590926e-02, 1.50929380e-03,
          2.12827045e-02, 4.95854378e-01, 4.95854378e-01, 1.01270035e-01,
          2.04835106e-02, 4.95854378e-01, 5.62687159e-01, 2.54700729e-03,
          2.25725176e-04, 1.08172940e-02, 5.62687159e-01, 2.10694790e-01,
          1.21089153e-03, 3.62570724e-03, 5.62687159e-01, 4.43351746e-01,
          1.44157512e-02, 3.85534577e-02, 1.28404796e-01, 4.43351746e-01,
          4.43351746e-01, 3.83710712e-01, 2.09552810e-01, 4.43351746e-01,
          2.89448321e-01, 1.56308189e-01, 5.70856147e-02, 2.99679525e-02,
          4.54600900e-01, 4.54600900e-01, 4.54600900e-01, 4.54600900e-01,
          2.37574801e-01, 1.08339161e-01, 9.80982557e-02, 5.19294851e-02,
          3.85331474e-02, 8.19518268e-01, 4.45284069e-01, 1.84935108e-01,
          1.92545936e-01, 1.58481181e-01, 1.50671145e-02, 1.02246806e-01,
          1.56467184e-01, 1.72202632e-01, 6.75636947e-01, 6.75636947e-01,
          1.18071042e-01, 2.04019397e-02, 3.33205350e-02, 2.89448321e-01,
          1.56308189e-01, 5.70856147e-02, 2.99679525e-02, 4.54600900e-01,
          4.54600900e-01, 4.54600900e-01, 4.54600900e-01, 2.37574801e-01,
          1.08339161e-01, 9.80982557e-02, 5.19294851e-02, 3.85331474e-02,
          8.19518268e-01, 4.45284069e-01, 1.84935108e-01, 1.92545936e-01,
          1.58481181e-01, 1.50671145e-02, 1.02246806e-01, 1.56467184e-01,
          1.72202632e-01, 6.75636947e-01, 6.75636947e-01, 1.18071042e-01,
          2.04019397e-02, 3.33205350e-02, 4.53774989e-01, 4.53774989e-01,
          3.11349705e-02, 7.74376735e-04, 2.39002705e-02, 2.01451719e-01,
          4.53774989e-01, 4.53774989e-01, 3.60134125e-01, 3.71834099e-01,
          2.31252581e-01, 4.10400555e-02, 4.68526239e-04, 1.73508450e-02,
          1.75599381e-01, 5.62075257e-01, 5.62075257e-01, 3.71444672e-01,
          2.86000460e-01, 4.49632019e-01, 1.79946646e-01, 6.34759516e-02,
          2.45111048e-01, 4.49632019e-01, 2.77091324e-01, 3.65973294e-01,
          4.49632019e-01, 1.51107103e-01, 5.05953170e-02, 3.49742658e-02,
          4.97192666e-02, 1.25155509e-01, 6.66894317e-01, 6.66894317e-01,
          2.12359563e-01, 1.18310437e-01, 4.52325553e-01, 3.19851935e-01,
          9.00707543e-02, 3.37174498e-02, 1.94397211e-01, 4.52325553e-01,
          4.52325553e-01, 4.22101766e-01, 2.32748121e-01, 6.84282780e-01,
          6.84282780e-01, 2.14899667e-02, 4.80935164e-03, 3.05607915e-02,
          1.48355037e-01, 1.20401748e-01, 9.11000222e-02, 1.02270044e-01 ]
      - [ 4.61875290e-01, 1.11945592e-01, 1.22745529e-01, 3.19817401e-02,
          1.98129967e-01, 4.61875290e-01, 4.61875290e-01, 2.72387236e-01,
          4.61875290e-01, 2.64302164e-01, 4.69072551e-01, 4.69072551e-01,
          1.36429310e-01, 4.69072551e-01, 4.69072551e-01, 1.37612522e-01,
          6.63531646e-02, 5.82244657e-02, 4.30210650e-01, 4.30210650e-01,
          4.30210650e-01, 8.87215734e-02, 3.48349988e-01, 1.87738821e-01,
          2.26872101e-01, 1.98599368e-01, 4.30210650e-01, 3.35873425e-01,
          3.75724614e-01, 1.65241688e-01, 5.77182025e-02, 1.02518328e-01,
          5.86508930e-01, 5.86508930e-01, 9.06353369e-02, 5.30775264e-02,
          8.82818624e-02, 6.81400478e-01, 6.81400478e-01, 6.82898313e-02,
          7.42886290e-02, 1.93074048e-01, 8.44470933e-02, 4.57326286e-02,
          1.03932144e-02, 1.40210958e-02, 6.34464443e-01, 6.34464443e-01,
          9.80576407e-03, 2.08449643e-03, 1.27378581e-02, 4.01752830e-01,
          1.63375810e-01, 4.33928333e-03, 1.95410654e-01, 3.03707361e-01,
          2.34994128e-01, 1.80011302e-01, 1.30149394e-01, 2.19972521e-01,
          5.92768490e-01, 5.92768490e-01, 8.91946033e-02, 2.64117159e-02,
          7.00223982e-01, 7.00223982e-01, 6.70142025e-02, 8.41461122e-03,
          2.72913417e-03, 5.97301088e-02, 3.96673009e-02, 4.44403701e-02,
          1.01389992e-03, 6.62669241e-01, 6.62669241e-01, 1.15902042e-02,
          1.16385476e-04, 1.08844170e-03, 3.13699394e-01, 1.28756061e-01,
          1.09753630e-03, 1.95410654e-01, 3.03707361e-01, 2.34994128e-01,
          1.80011302e-01, 1.30149394e-01, 2.19972521e-01, 5.92768490e-01,
          5.92768490e-01, 8.91946033e-02, 2.64117159e-02, 7.00223982e-01,
          7.00223982e-01, 6.70142025e-02, 8.41461122e-03, 2.72913417e-03,
          5.97301088e-02, 3.96673009e-02, 4.44403701e-02, 1.01389992e-03,
          6.62669241e-01, 6.62669241e-01, 1.15902042e-02, 1.16385476e-04,
          1.08844170e-03, 3.13699394e-01, 1.28756061e-01, 1.09753630e-03,
          1.41046137e-01, 1.87242910e-01, 2.02944472e-01, 3.60271096e-01,
          1.50680423e-01, 4.13570516e-02, 2.85802186e-01, 5.75421810e-01,
          5.75421810e-01, 1.16541043e-01, 5.15947163e-01, 5.42456686e-01,
          1.45079434e-01, 6.74370602e-02, 2.68798713e-02, 3.10716666e-02,
          3.93816590e-01, 4.88021523e-01, 3.18017742e-03, 6.16042972e-01,
          7.32139409e-01, 6.64301068e-02, 9.90921631e-02, 3.17647569e-02,
          2.28542507e-01, 9.73679349e-02, 1.38416486e-02, 1.14143461e-01,
          1.89707309e-01, 5.40407263e-02, 3.20347399e-01, 4.54545796e-01,
          4.54545796e-01, 1.20215736e-01, 4.54545796e-01, 4.54545796e-01,
          2.59153694e-01, 3.53904694e-01, 3.94121617e-01, 3.94121617e-01,
          3.94121617e-01, 1.37208119e-01, 9.03780013e-02, 3.94121617e-01,
          3.94121617e-01, 1.28457397e-01, 3.87463450e-01, 4.26659554e-01,
          4.26659554e-01, 4.26659554e-01, 4.26659554e-01, 2.66628563e-01,
          1.57826096e-01, 7.03940317e-02, 4.30210650e-01, 4.30210650e-01,
          4.30210650e-01, 8.87215734e-02, 3.48349988e-01, 1.87738821e-01,
          2.26872101e-01, 1.98599368e-01, 4.30210650e-01, 1.58124760e-01,
          6.73403032e-03, 4.32347916e-02, 4.01402712e-01, 4.83883619e-01,
          1.94354072e-01, 4.83883619e-01, 4.83883619e-01, 2.58691072e-01,
          4.34035324e-02, 9.87999588e-02, 4.59349990e-01, 5.89572966e-01,
          5.89572966e-01, 1.04415670e-01, 2.03360468e-01, 1.49635822e-01,
          4.02973779e-02, 1.40210958e-02, 6.34464443e-01, 6.34464443e-01,
          9.80576407e-03, 2.08449643e-03, 1.27378581e-02, 4.01752830e-01,
          1.63375810e-01, 4.33928333e-03, 7.01023499e-03, 2.45615393e-02,
          1.18577436e-01, 1.92137342e-02, 3.23764817e-03, 1.33673502e-02,
          6.99194849e-01, 6.99194849e-01, 1.41311286e-03, 7.22574443e-02,
          1.89307258e-01, 4.24876183e-01, 4.24876183e-01, 4.24876183e-01,
          2.17624456e-01, 4.24876183e-01, 4.24876183e-01, 6.88342154e-02,
          1.01389992e-03, 6.62669241e-01, 6.62669241e-01, 1.15902042e-02,
          1.16385476e-04, 1.08844170e-03, 3.13699394e-01, 1.28756061e-01,
          1.09753630e-03, 4.61403187e-03, 2.73830537e-02, 5.59757650e-02,
          2.07634154e-03, 9.48388260e-05, 1.33179710e-03, 7.03230977e-01,
          7.03230977e-01, 1.42021617e-03, 4.58224975e-02, 2.81549960e-01,
          4.75105226e-01, 2.16029808e-02, 7.33342320e-02, 9.98296067e-02,
          5.78387201e-01, 5.78387201e-01, 4.74912561e-02, 1.01389992e-03,
          6.62669241e-01, 6.62669241e-01, 1.15902042e-02, 1.16385476e-04,
          1.08844170e-03, 3.13699394e-01, 1.28756061e-01, 1.09753630e-03,
          4.61403187e-03, 2.73830537e-02, 5.59757650e-02, 2.07634154e-03,
          9.48388260e-05, 1.33179710e-03, 7.03230977e-01, 7.03230977e-01,
          1.42021617e-03, 4.58224975e-02, 2.81549960e-01, 4.75105226e-01,
          2.16029808e-02, 7.33342320e-02, 9.98296067e-02, 5.78387201e-01,
          5.78387201e-01, 4.74912561e-02, 3.18017742e-03, 6.16042972e-01,
          7.32139409e-01, 6.64301068e-02, 9.90921631e-02, 3.17647569e-02,
          2.28542507e-01, 9.73679349e-02, 1.38416486e-02, 2.43452359e-02,
          1.22374501e-02, 5.54350242e-02, 1.79551486e-02, 4.79278341e-02,
          6.09025396e-02, 7.00922072e-01, 7.00922072e-01, 1.65974498e-02,
          4.51955378e-01, 4.51955378e-01, 3.01363587e-01, 5.17631806e-02,
          1.61631748e-01, 1.89243481e-01, 4.51955378e-01, 4.46164310e-01,
          1.67912364e-01, 1.28457397e-01, 3.87463450e-01, 4.26659554e-01,
          4.26659554e-01, 4.26659554e-01, 4.26659554e-01, 2.66628563e-01,
          1.57826096e-01, 7.03940317e-02, 3.11871737e-01, 1.66977376e-01,
          2.42538735e-01, 2.56153613e-01, 4.13093150e-01, 4.13093150e-01,
          4.13093150e-01, 4.13093150e-01, 2.52397358e-01, 4.90613222e-01,
          4.90613222e-01, 3.76293212e-01, 1.31404027e-01, 1.34363785e-01,
          1.06213681e-01, 2.57271379e-01, 1.36413515e-01, 4.90613222e-01 ]
      - [ 4.59037513e-01, 4.59037513e-01, 3.34359765e-01, 1.67239740e-01,
          6.08346164e-02, 4.59037513e-01, 4.59037513e-01, 6.54627830e-02,
          6.92938417e-02, 3.72835487e-01, 3.72835487e-01, 3.72835487e-01,
          3.14788908e-01, 4.56817523e-02, 3.72835487e-01, 3.72835487e-01,
          3.72835487e-01, 2.47100294e-01, 3.61968130e-01, 3.61968130e-01,
          3.37973356e-01, 1.83781490e-01, 2.49512240e-01, 3.61968130e-01,
          3.61968130e-01, 3.61968130e-01, 3.61968130e-01, 2.90778369e-01,
          3.85214716e-01, 3.85214716e-01, 3.85214716e-01, 3.77056263e-02,
          3.85214716e-01, 3.85214716e-01, 3.85214716e-01, 1.40838489e-01,
          4.02085602e-01, 3.79291832e-01, 4.02085602e-01, 4.02085602e-01,
          4.02085602e-01, 1.42278716e-01, 1.97204337e-01, 3.08505744e-01,
          2.26099297e-01, 3.88159484e-01, 3.88159484e-01, 6.24496937e-02,
          3.88159484e-01, 3.88159484e-01, 2.93083191e-01, 4.81412187e-02,
          3.88159484e-01, 3.88159484e-01, 2.38389790e-01, 2.36374393e-01,
          4.99442041e-01, 1.56594381e-01, 1.30827710e-01, 2.35650335e-02,
          1.13956928e-01, 5.37266493e-01, 5.37266493e-01, 4.02651995e-01,
          4.02651995e-01, 4.02651995e-01, 3.30295086e-01, 2.23849624e-01,
          2.35575587e-01, 3.18840861e-01, 3.77208561e-01, 2.25713462e-01,
          4.47652668e-01, 7.02773258e-02, 2.00932045e-02, 3.15040350e-01,
          4.47652668e-01, 4.47652668e-01, 1.77309677e-01, 2.40675971e-01,
          4.47652668e-01, 2.38389790e-01, 2.36374393e-01, 4.99442041e-01,
          1.56594381e-01, 1.30827710e-01, 2.35650335e-02, 1.13956928e-01,
          5.37266493e-01, 5.37266493e-01, 4.02651995e-01, 4.02651995e-01,
          4.02651995e-01, 3.30295086e-01, 2.23849624e-01, 2.35575587e-01,
          3.18840861e-01, 3.77208561e-01, 2.25713462e-01, 4.47652668e-01,
          7.02773258e-02, 2.00932045e-02, 3.15040350e-01, 4.47652668e-01,
          4.47652668e-01, 1.77309677e-01, 2.40675971e-01, 4.47652668e-01,
          4.43620741e-01, 6.23241737e-02, 5.51956743e-02, 4.43733126e-01,
          4.43733126e-01, 6.36322796e-02, 1.38532352e-02, 4.43733126e-01,
          4.43733126e-01, 2.45174512e-01, 2.06169426e-01, 4.15244877e-01,
          4.15244877e-01, 4.15244877e-01, 5.65836206e-02, 1.67009875e-01,
          4.15244877e-01, 4.15244877e-01, 4.64156151e-01, 4.23130095e-02,
          4.77517061e-02, 4.64156151e-01, 4.64156151e-01, 1.10386632e-01,
          8.06880593e-02, 3.32916915e-01, 4.64156151e-01, 6.27584279e-01,
          1.04967102e-01, 4.84554134e-02, 1.87465116e-01, 3.91077906e-01,
          2.68459041e-02, 4.38160403e-03, 6.17979318e-02, 6.27584279e-01,
          6.77316129e-01, 5.43753803e-02, 8.66368189e-02, 1.57939270e-01,
          1.02450825e-01, 1.36044975e-02, 3.21943574e-02, 1.69111863e-01,
          6.77316129e-01, 4.67962027e-01, 1.97990283e-01, 6.88725486e-02,
          1.93768233e-01, 4.67962027e-01, 8.70077126e-03, 1.94438934e-01,
          4.67962027e-01, 4.67962027e-01, 3.61968130e-01, 3.61968130e-01,
          3.37973356e-01, 1.83781490e-01, 2.49512240e-01, 3.61968130e-01,
          3.61968130e-01, 3.61968130e-01, 3.61968130e-01, 4.09578323e-01,
          3.50521147e-01, 4.09578323e-01, 4.09578323e-01, 6.81791380e-02,
          7.03192800e-02, 1.57092825e-01, 4.09578323e-01, 4.09578323e-01,
          4.10144538e-01, 1.10574119e-01, 2.63165414e-01, 4.10144538e-01,
          1.46731645e-01, 2.27590218e-01, 4.10144538e-01, 4.10144538e-01,
          4.10144538e-01, 3.88159484e-01, 3.88159484e-01, 6.24496937e-02,
          3.88159484e-01, 3.88159484e-01, 2.93083191e-01, 4.81412187e-02,
          3.88159484e-01, 3.88159484e-01, 3.69713724e-01, 2.75959849e-01,
          2.69482791e-01, 3.52700800e-01, 3.69713724e-01, 3.69713724e-01,
          1.99230000e-01, 3.69713724e-01, 3.69713724e-01, 1.30077273e-01,
          1.33941770e-01, 2.31073320e-01, 2.53352225e-01, 1.55854270e-01,
          4.52423394e-01, 4.52423394e-01, 4.52423394e-01, 4.52423394e-01,
          4.47652668e-01, 7.02773258e-02, 2.00932045e-02, 3.15040350e-01,
          4.47652668e-01, 4.47652668e-01, 1.77309677e-01, 2.40675971e-01,
          4.47652668e-01, 4.09596264e-01, 1.46697044e-01, 3.54884744e-01,
          4.09596264e-01, 4.09596264e-01, 1.67806596e-01, 4.43093441e-02,
          3.83726984e-01, 4.09596264e-01, 1.52767643e-01, 2.61822343e-01,
          2.38901526e-01, 1.26654819e-01, 6.66679889e-02, 2.32351542e-01,
          5.07115781e-01, 5.07115781e-01, 5.07115781e-01, 4.47652668e-01,
          7.02773258e-02, 2.00932045e-02, 3.15040350e-01, 4.47652668e-01,
          4.47652668e-01, 1.77309677e-01, 2.40675971e-01, 4.47652668e-01,
          4.09596264e-01, 1.46697044e-01, 3.54884744e-01, 4.09596264e-01,
          4.09596264e-01, 1.67806596e-01, 4.43093441e-02, 3.83726984e-01,
          4.09596264e-01, 1.52767643e-01, 2.61822343e-01, 2.38901526e-01,
          1.26654819e-01, 6.66679889e-02, 2.32351542e-01, 5.07115781e-01,
          5.07115781e-01, 5.07115781e-01, 4.64156151e-01, 4.23130095e-02,
          4.77517061e-02, 4.64156151e-01, 4.64156151e-01, 1.10386632e-01,
          8.06880593e-02, 3.32916915e-01, 4.64156151e-01, 4.32565540e-01,
          3.02341342e-01, 2.57615924e-01, 2.68690825e-01, 4.32565540e-01,
          4.32565540e-01, 1.05526976e-01, 7.82322809e-02, 4.32565540e-01,
          4.25169557e-01, 4.25169557e-01, 2.05199540e-01, 1.45715490e-01,
          2.19463214e-01, 4.25169557e-01, 4.25169557e-01, 3.44822437e-01,
          2.05596089e-01, 4.67962027e-01, 1.97990283e-01, 6.88725486e-02,
          1.93768233e-01, 4.67962027e-01, 8.70077126e-03, 1.94438934e-01,
          4.67962027e-01, 4.67962027e-01, 4.96806204e-01, 1.64398506e-01,
          4.94625904e-02, 1.09614171e-01, 4.96806204e-01, 2.57292986e-01,
          9.70041230e-02, 3.70797366e-01, 4.96806204e-01, 3.99106473e-01,
          1.82914898e-01, 3.99106473e-01, 1.97317034e-01, 2.08175123e-01,
          3.06675762e-01, 3.86122048e-01, 3.99106473e-01, 3.99106473e-01 ]
      - [ 3.74668688e-01, 3.74668688e-01, 3.74668688e-01, 3.74668688e-01,
          3.38584751e-01, 3.74668688e-01, 1.41380265e-01, 1.39173001e-01,
          3.74668688e-01, 3.51538867e-01, 3.51538867e-01, 3.20883840e-01,
          3.51538867e-01, 3.43906730e-01, 3.51538867e-01, 3.51538867e-01,
          3.51538867e-01, 1.83771849e-01, 4.44590420e-01, 2.33259678e-01,
          4.44590420e-01, 4.44590420e-01, 2.36387104e-01, 1.79015934e-01,
          2.07775906e-01, 1.39319599e-01, 4.44590420e-01, 2.99799562e-01,
          5.08578360e-01, 5.08578360e-01, 1.58270374e-01, 1.32060330e-02,
          3.64063419e-02, 5.24012148e-02, 3.15895081e-01, 5.08578360e-01,
          9.48206186e-02, 1.49218678e-01, 3.30598146e-01, 4.35890526e-01,
          1.96609855e-01, 2.37562492e-01, 4.35890526e-01, 4.35890526e-01,
          4.35890526e-01, 1.37335762e-01, 3.70740056e-01, 5.56363642e-01,
          5.56363642e-01, 1.55065626e-01, 9.39132720e-02, 2.65276670e-01,
          3.00288320e-01, 1.60137475e-01, 3.03884968e-02, 5.22312343e-01,
          5.22312343e-01, 5.22312343e-01, 4.04224358e-03, 1.46988118e-02,
          1.96371332e-01, 3.61189514e-01, 7.85988718e-02, 2.90489029e-02,
          9.81584936e-02, 2.86286950e-01, 1.22197464e-01, 1.67072024e-02,
          7.37363920e-02, 6.13139987e-01, 6.13139987e-01, 3.59039307e-01,
          2.61490673e-01, 1.01807617e-01, 3.93106341e-01, 3.93106341e-01,
          3.45965475e-01, 1.58036783e-01, 3.93106341e-01, 3.93106341e-01,
          3.93106341e-01, 3.03884968e-02, 5.22312343e-01, 5.22312343e-01,
          5.22312343e-01, 4.04224358e-03, 1.46988118e-02, 1.96371332e-01,
          3.61189514e-01, 7.85988718e-02, 2.90489029e-02, 9.81584936e-02,
          2.86286950e-01, 1.22197464e-01, 1.67072024e-02, 7.37363920e-02,
          6.13139987e-01, 6.13139987e-01, 3.59039307e-01, 2.61490673e-01,
          1.01807617e-01, 3.93106341e-01, 3.93106341e-01, 3.45965475e-01,
          1.58036783e-01, 3.93106341e-01, 3.93106341e-01, 3.93106341e-01,
          2.29383912e-02, 9.24271494e-02, 5.26519239e-01, 5.26519239e-01,
          6.15091017e-03, 1.16987424e-02, 1.39840126e-01, 5.26519239e-01,
          3.66436094e-01, 3.40312645e-02, 3.22076045e-02, 4.93733406e-01,
          4.93733406e-01, 1.31884530e-01, 2.53385846e-02, 2.25691929e-01,
          4.93733406e-01, 4.38842624e-01, 5.38348913e-01, 1.15427012e-02,
          5.80836795e-02, 2.43149310e-01, 2.16488361e-01, 4.54813652e-02,
          1.16622530e-01, 5.38348913e-01, 5.38348913e-01, 5.78260049e-02,
          4.39966470e-02, 1.50137901e-01, 4.90238726e-01, 2.27364227e-02,
          7.36864358e-02, 4.90238726e-01, 4.90238726e-01, 4.90238726e-01,
          3.57392281e-02, 3.35610211e-02, 1.25802100e-01, 4.93301630e-01,
          4.93301630e-01, 9.63289477e-03, 5.80029413e-02, 4.93301630e-01,
          4.93301630e-01, 1.33216411e-01, 1.74326971e-02, 5.91414515e-03,
          5.66840827e-01, 5.66840827e-01, 3.71812247e-02, 2.90869121e-02,
          1.00499772e-01, 5.66840827e-01, 4.44590420e-01, 2.33259678e-01,
          4.44590420e-01, 4.44590420e-01, 2.36387104e-01, 1.79015934e-01,
          2.07775906e-01, 1.39319599e-01, 4.44590420e-01, 6.13939524e-01,
          3.53045203e-02, 6.67824745e-02, 5.55013604e-02, 3.66029292e-02,
          6.80313399e-03, 1.95258353e-02, 3.88550669e-01, 6.74403369e-01,
          1.30140498e-01, 2.64400169e-02, 8.24827030e-02, 5.60356081e-01,
          1.29237190e-01, 1.17301792e-02, 2.58778594e-02, 5.64982653e-01,
          5.64982653e-01, 1.37335762e-01, 3.70740056e-01, 5.56363642e-01,
          5.56363642e-01, 1.55065626e-01, 9.39132720e-02, 2.65276670e-01,
          3.00288320e-01, 1.60137475e-01, 6.07634187e-02, 1.54491410e-01,
          4.79102641e-01, 6.33502483e-01, 4.74814624e-01, 1.34395197e-01,
          1.10746562e-01, 1.49488270e-01, 2.39014879e-01, 5.42712808e-02,
          8.80962089e-02, 1.44865498e-01, 1.35348082e-01, 8.57110992e-02,
          9.73218903e-02, 1.66489139e-01, 6.70357943e-01, 6.70357943e-01,
          2.61490673e-01, 1.01807617e-01, 3.93106341e-01, 3.93106341e-01,
          3.45965475e-01, 1.58036783e-01, 3.93106341e-01, 3.93106341e-01,
          3.93106341e-01, 3.20759922e-01, 5.33475541e-02, 7.52129406e-02,
          5.88401496e-01, 5.88401496e-01, 1.88602179e-01, 6.84001893e-02,
          1.33130208e-01, 3.63770604e-01, 1.38598725e-01, 7.90220350e-02,
          1.29134640e-01, 6.65425062e-01, 6.65425062e-01, 1.61199763e-01,
          3.28737982e-02, 1.24487147e-01, 1.51930466e-01, 2.61490673e-01,
          1.01807617e-01, 3.93106341e-01, 3.93106341e-01, 3.45965475e-01,
          1.58036783e-01, 3.93106341e-01, 3.93106341e-01, 3.93106341e-01,
          3.20759922e-01, 5.33475541e-02, 7.52129406e-02, 5.88401496e-01,
          5.88401496e-01, 1.88602179e-01, 6.84001893e-02, 1.33130208e-01,
          3.63770604e-01, 1.38598725e-01, 7.90220350e-02, 1.29134640e-01,
          6.65425062e-01, 6.65425062e-01, 1.61199763e-01, 3.28737982e-02,
          1.24487147e-01, 1.51930466e-01, 5.38348913e-01, 1.15427012e-02,
          5.80836795e-02, 2.43149310e-01, 2.16488361e-01, 4.54813652e-02,
          1.16622530e-01, 5.38348913e-01, 5.38348913e-01, 5.98675430e-01,
          8.94261748e-02, 7.29618780e-03, 3.53266746e-01, 3.21366936e-01,
          5.46610057e-02, 2.24891044e-02, 1.93855390e-01, 5.98675430e-01,
          4.38607603e-01, 2.38247812e-01, 2.79847056e-01, 2.57886380e-01,
          4.38607603e-01, 1.37892142e-01, 7.42713213e-02, 4.38607603e-01,
          4.38607603e-01, 1.33216411e-01, 1.74326971e-02, 5.91414515e-03,
          5.66840827e-01, 5.66840827e-01, 3.71812247e-02, 2.90869121e-02,
          1.00499772e-01, 5.66840827e-01, 2.41454974e-01, 1.02907522e-02,
          8.62161722e-03, 2.54558444e-01, 6.87053978e-01, 5.49913645e-01,
          1.48218824e-02, 4.22950201e-02, 3.05620223e-01, 4.53478813e-01,
          1.31969914e-01, 2.47964188e-02, 3.12210787e-02, 4.53478813e-01,
          4.53478813e-01, 1.43656060e-01, 4.31007355e-01, 3.91319871e-01 ]
      - [ 5.06803215e-01, 5.06803215e-01, 2.92085946e-01, 1.13689117e-01,
          9.44797844e-02, 5.06803215e-01, 3.21537912e-01, 1.17496721e-01,
          5.63958799e-03, 2.61584729e-01, 4.88303393e-01, 4.88303393e-01,
          9.22557861e-02, 3.70149314e-01, 4.88303393e-01, 2.55537271e-01,
          2.33757738e-02, 2.89598643e-03, 4.20484841e-01, 4.20484841e-01,
          4.20484841e-01, 4.27962393e-02, 2.10920170e-01, 2.60431677e-01,
          4.20484841e-01, 3.45788896e-01, 2.34213963e-01, 4.88397419e-01,
          4.88397419e-01, 9.20912325e-02, 5.59736900e-02, 1.15515009e-01,
          4.88397419e-01, 4.88397419e-01, 1.22850612e-01, 3.07241939e-02,
          3.26865278e-02, 6.37062728e-01, 6.37062728e-01, 1.56832680e-01,
          1.51381522e-01, 3.31384122e-01, 1.51635349e-01, 2.32748371e-02,
          3.15869134e-03, 1.55419076e-03, 5.42906344e-01, 5.42906344e-01,
          8.55182670e-03, 3.39916628e-03, 4.73575667e-03, 5.42906344e-01,
          3.32004368e-01, 1.50289452e-05, 2.22856179e-01, 2.35861644e-01,
          8.03776681e-02, 9.10657495e-02, 3.35403800e-01, 4.88111258e-01,
          4.88111258e-01, 4.88111258e-01, 2.18683019e-01, 2.37645909e-01,
          6.17848456e-01, 6.17848456e-01, 9.70745683e-02, 4.37403359e-02,
          3.55597995e-02, 4.95929718e-02, 9.02474076e-02, 3.88171256e-01,
          5.80892898e-03, 5.53145945e-01, 5.53145945e-01, 7.72973476e-03,
          1.43484054e-02, 8.39508139e-03, 5.53145945e-01, 2.75882632e-01,
          9.15558636e-03, 2.22856179e-01, 2.35861644e-01, 8.03776681e-02,
          9.10657495e-02, 3.35403800e-01, 4.88111258e-01, 4.88111258e-01,
          4.88111258e-01, 2.18683019e-01, 2.37645909e-01, 6.17848456e-01,
          6.17848456e-01, 9.70745683e-02, 4.37403359e-02, 3.55597995e-02,
          4.95929718e-02, 9.02474076e-02, 3.88171256e-01, 5.80892898e-03,
          5.53145945e-01, 5.53145945e-01, 7.72973476e-03, 1.43484054e-02,
          8.39508139e-03, 5.53145945e-01, 2.75882632e-01, 9.15558636e-03,
          7.39615634e-02, 3.24464411e-01, 4.94952738e-01, 1.20497234e-01,
          2.17718318e-01, 2.83278078e-01, 4.94952738e-01, 4.94952738e-01,
          8.48951116e-02, 3.42027456e-01, 4.68432158e-01, 4.68432158e-01,
          2.08509732e-02, 7.79915601e-03, 9.11749154e-03, 6.70872023e-03,
          4.68432158e-01, 4.68432158e-01, 1.72588110e-01, 4.50612217e-01,
          4.50612217e-01, 2.16643214e-02, 1.71576776e-02, 1.21131912e-02,
          4.26709801e-01, 4.16613042e-01, 4.50612217e-01, 1.05415761e-01,
          1.90003172e-01, 4.39595997e-01, 2.93257177e-01, 2.77914792e-01,
          1.10363968e-01, 4.39595997e-01, 4.39595997e-01, 4.39595997e-01,
          4.72952202e-02, 5.45661092e-01, 5.61574817e-01, 5.61574817e-01,
          1.30595416e-01, 2.79760677e-02, 1.62792876e-02, 1.08541660e-01,
          1.83827683e-01, 3.15937072e-01, 2.09722519e-01, 4.45659786e-01,
          4.45659786e-01, 2.58671731e-01, 3.09666634e-01, 2.23447308e-01,
          2.07792297e-01, 4.45659786e-01, 4.20484841e-01, 4.20484841e-01,
          4.20484841e-01, 4.27962393e-02, 2.10920170e-01, 2.60431677e-01,
          4.20484841e-01, 3.45788896e-01, 2.34213963e-01, 2.87504554e-01,
          5.49798943e-02, 8.95480737e-02, 2.03221947e-01, 2.99779564e-01,
          7.71580338e-02, 5.92467606e-01, 5.92467606e-01, 2.47441933e-01,
          1.92973111e-02, 2.60369591e-02, 3.11887801e-01, 5.25404215e-01,
          5.25404215e-01, 2.13369057e-01, 1.56606287e-01, 4.70780611e-01,
          2.29441300e-01, 1.55419076e-03, 5.42906344e-01, 5.42906344e-01,
          8.55182670e-03, 3.39916628e-03, 4.73575667e-03, 5.42906344e-01,
          3.32004368e-01, 1.50289452e-05, 4.74606548e-03, 3.46374027e-02,
          5.06139472e-02, 1.13585833e-02, 7.04281032e-03, 5.21034822e-02,
          7.02249765e-01, 7.02249765e-01, 1.70949369e-03, 8.64433572e-02,
          1.22221984e-01, 4.73466665e-01, 3.19006115e-01, 1.25354245e-01,
          4.89562839e-01, 4.89562839e-01, 3.65871757e-01, 1.33583948e-01,
          5.80892898e-03, 5.53145945e-01, 5.53145945e-01, 7.72973476e-03,
          1.43484054e-02, 8.39508139e-03, 5.53145945e-01, 2.75882632e-01,
          9.15558636e-03, 2.18691617e-01, 4.43079472e-01, 1.10448867e-01,
          1.55247906e-02, 7.12905126e-03, 8.09326675e-03, 5.94387591e-01,
          5.94387591e-01, 1.75414056e-01, 4.48913008e-01, 3.83998215e-01,
          6.60547838e-02, 8.18167180e-02, 4.50352132e-02, 1.69954196e-01,
          4.48913008e-01, 4.48913008e-01, 4.48913008e-01, 5.80892898e-03,
          5.53145945e-01, 5.53145945e-01, 7.72973476e-03, 1.43484054e-02,
          8.39508139e-03, 5.53145945e-01, 2.75882632e-01, 9.15558636e-03,
          2.18691617e-01, 4.43079472e-01, 1.10448867e-01, 1.55247906e-02,
          7.12905126e-03, 8.09326675e-03, 5.94387591e-01, 5.94387591e-01,
          1.75414056e-01, 4.48913008e-01, 3.83998215e-01, 6.60547838e-02,
          8.18167180e-02, 4.50352132e-02, 1.69954196e-01, 4.48913008e-01,
          4.48913008e-01, 4.48913008e-01, 1.72588110e-01, 4.50612217e-01,
          4.50612217e-01, 2.16643214e-02, 1.71576776e-02, 1.21131912e-02,
          4.26709801e-01, 4.16613042e-01, 4.50612217e-01, 4.47696686e-01,
          4.47696686e-01, 1.04730882e-01, 1.80209447e-02, 8.05015769e-03,
          7.56118372e-02, 4.47696686e-01, 4.47696686e-01, 4.20385033e-01,
          1.86850414e-01, 4.77441579e-01, 8.36499035e-02, 2.55523957e-02,
          1.00275185e-02, 1.38555467e-01, 5.83927095e-01, 5.83927095e-01,
          1.49718001e-01, 3.15937072e-01, 2.09722519e-01, 4.45659786e-01,
          4.45659786e-01, 2.58671731e-01, 3.09666634e-01, 2.23447308e-01,
          2.07792297e-01, 4.45659786e-01, 1.36302561e-01, 1.37540072e-01,
          5.05265817e-02, 2.77634561e-02, 5.51258847e-02, 6.75960243e-01,
          6.75960243e-01, 1.09518185e-01, 1.53475896e-01, 4.83228356e-01,
          4.83228356e-01, 9.01007429e-02, 5.16358763e-02, 1.24321632e-01,
          4.83228356e-01, 4.83228356e-01, 1.77698478e-01, 5.76013736e-02 ]
      - [ 5.26914954e-01, 5.26914954e-01, 1.42138794e-01, 1.24094412e-01,
          3.53567362e-01, 5.26914954e-01, 2.22837105e-02, 2.14734860e-03,
          2.65689101e-02, 4.20256466e-01, 3.97547930e-01, 4.54422273e-02,
          2.48783603e-02, 5.49082637e-01, 5.95645487e-01, 1.79877952e-02,
          9.26459115e-03, 3.73290782e-03, 1.21948004e-01, 4.68819201e-01,
          4.68819201e-01, 2.72967249e-01, 4.68819201e-01, 4.68819201e-01,
          1.43572703e-01, 7.64654428e-02, 1.75788719e-02, 2.65203565e-01,
          4.13600504e-01, 1.28693953e-01, 2.60562859e-02, 4.32038009e-01,
          4.98162806e-01, 4.98162806e-01, 2.17758149e-01, 7.73133561e-02,
          3.56971979e-01, 5.02396643e-01, 2.31221259e-01, 1.13617659e-01,
          4.39253718e-01, 5.02396643e-01, 1.83669403e-01, 2.24781960e-01,
          1.38460070e-01, 6.44277260e-02, 5.12727261e-01, 5.12727261e-01,
          2.46961147e-01, 4.67043258e-02, 1.38068601e-01, 4.80551183e-01,
          3.67566645e-01, 1.29155949e-01, 1.12625666e-01, 3.30547988e-01,
          3.10442448e-01, 5.07113822e-02, 8.01935196e-02, 1.43108457e-01,
          6.08854413e-01, 6.08854413e-01, 6.86268732e-02, 4.05653089e-01,
          4.05653089e-01, 1.72313794e-01, 3.94632667e-01, 4.05653089e-01,
          3.13037872e-01, 1.59068033e-01, 3.13250721e-01, 3.08927327e-01,
          1.77255183e-01, 4.28548396e-01, 4.28548396e-01, 4.28548396e-01,
          4.28548396e-01, 1.97075307e-01, 1.43974498e-01, 3.38508189e-01,
          2.35647365e-01, 1.12625666e-01, 3.30547988e-01, 3.10442448e-01,
          5.07113822e-02, 8.01935196e-02, 1.43108457e-01, 6.08854413e-01,
          6.08854413e-01, 6.86268732e-02, 4.05653089e-01, 4.05653089e-01,
          1.72313794e-01, 3.94632667e-01, 4.05653089e-01, 3.13037872e-01,
          1.59068033e-01, 3.13250721e-01, 3.08927327e-01, 1.77255183e-01,
          4.28548396e-01, 4.28548396e-01, 4.28548396e-01, 4.28548396e-01,
          1.97075307e-01, 1.43974498e-01, 3.38508189e-01, 2.35647365e-01,
          9.64775681e-02, 3.43698896e-02, 1.42304838e-01, 2.48752654e-01,
          1.11189105e-01, 5.75757064e-02, 5.43530583e-01, 5.43530583e-01,
          5.43530583e-01, 4.31675524e-01, 2.28441775e-01, 1.22867391e-01,
          2.75530428e-01, 4.15435076e-01, 2.82493889e-01, 2.02653408e-01,
          4.31675524e-01, 4.31675524e-01, 1.79670736e-01, 4.72262919e-01,
          4.72262919e-01, 4.72262919e-01, 1.88613072e-01, 9.76764485e-02,
          2.63553292e-01, 4.04290795e-01, 1.26006082e-01, 2.70635244e-02,
          6.96694059e-03, 7.93651417e-02, 5.65463603e-01, 1.67236090e-01,
          0., 7.64324795e-03, 5.65463603e-01, 5.65463603e-01,
          4.59313132e-02, 5.99340275e-02, 3.70472074e-02, 5.64910889e-01,
          6.37539476e-02, 2.39135288e-02, 1.76745728e-02, 5.75805008e-01,
          5.75805008e-01, 2.70631522e-01, 4.12720740e-01, 4.12720740e-01,
          4.12720740e-01, 6.50242195e-02, 3.56071070e-02, 2.55827188e-01,
          4.12720740e-01, 4.12720740e-01, 1.21948004e-01, 4.68819201e-01,
          4.68819201e-01, 2.72967249e-01, 4.68819201e-01, 4.68819201e-01,
          1.43572703e-01, 7.64654428e-02, 1.75788719e-02, 2.31318936e-01,
          3.60834301e-01, 3.60834301e-01, 3.60834301e-01, 3.60834301e-01,
          3.40929538e-01, 3.60834301e-01, 3.60834301e-01, 2.13179097e-01,
          2.24141613e-01, 2.18318224e-01, 3.90194178e-01, 3.90194178e-01,
          3.90194178e-01, 2.91956663e-01, 2.27384016e-01, 3.90194178e-01,
          3.90194178e-01, 6.44277260e-02, 5.12727261e-01, 5.12727261e-01,
          2.46961147e-01, 4.67043258e-02, 1.38068601e-01, 4.80551183e-01,
          3.67566645e-01, 1.29155949e-01, 2.18221068e-01, 3.46770883e-01,
          3.46770883e-01, 3.46770883e-01, 3.46770883e-01, 3.27359945e-01,
          3.46770883e-01, 3.46770883e-01, 3.46770883e-01, 3.68291557e-01,
          8.31019804e-02, 1.49691015e-01, 3.90680939e-01, 3.90680939e-01,
          3.90680939e-01, 2.60743588e-01, 3.90680939e-01, 3.90680939e-01,
          1.77255183e-01, 4.28548396e-01, 4.28548396e-01, 4.28548396e-01,
          4.28548396e-01, 1.97075307e-01, 1.43974498e-01, 3.38508189e-01,
          2.35647365e-01, 3.74269456e-01, 3.74269456e-01, 3.74269456e-01,
          2.97495723e-01, 3.74269456e-01, 3.74269456e-01, 1.99199855e-01,
          1.66164890e-01, 3.74269456e-01, 4.23971176e-01, 3.71223278e-02,
          1.12442069e-01, 3.48609716e-01, 4.23971176e-01, 4.17574883e-01,
          1.32422969e-01, 3.59242707e-01, 4.23971176e-01, 1.77255183e-01,
          4.28548396e-01, 4.28548396e-01, 4.28548396e-01, 4.28548396e-01,
          1.97075307e-01, 1.43974498e-01, 3.38508189e-01, 2.35647365e-01,
          3.74269456e-01, 3.74269456e-01, 3.74269456e-01, 2.97495723e-01,
          3.74269456e-01, 3.74269456e-01, 1.99199855e-01, 1.66164890e-01,
          3.74269456e-01, 4.23971176e-01, 3.71223278e-02, 1.12442069e-01,
          3.48609716e-01, 4.23971176e-01, 4.17574883e-01, 1.32422969e-01,
          3.59242707e-01, 4.23971176e-01, 1.79670736e-01, 4.72262919e-01,
          4.72262919e-01, 4.72262919e-01, 1.88613072e-01, 9.76764485e-02,
          2.63553292e-01, 4.04290795e-01, 1.26006082e-01, 3.36977959e-01,
          3.36977959e-01, 3.36977959e-01, 3.36977959e-01, 3.36977959e-01,
          3.33627135e-01, 3.00743818e-01, 3.36977959e-01, 3.36977959e-01,
          3.54059547e-01, 3.54059547e-01, 3.54059547e-01, 3.54059547e-01,
          3.54059547e-01, 3.54059547e-01, 9.31837633e-02, 3.32072496e-01,
          3.54059547e-01, 2.70631522e-01, 4.12720740e-01, 4.12720740e-01,
          4.12720740e-01, 6.50242195e-02, 3.56071070e-02, 2.55827188e-01,
          4.12720740e-01, 4.12720740e-01, 3.87677282e-01, 3.87677282e-01,
          3.87677282e-01, 3.87677282e-01, 1.77696228e-01, 2.17440173e-01,
          3.75414461e-01, 1.57691449e-01, 3.87677282e-01, 4.04808044e-01,
          9.37808380e-02, 2.75811762e-01, 2.11768493e-01, 3.87439579e-01,
          4.04808044e-01, 4.04808044e-01, 2.46283218e-01, 4.04808044e-01 ]
      - [ 5.08557737e-01, 3.62007469e-01, 3.37993912e-02, 1.95757952e-03,
          1.04128160e-01, 5.08557737e-01, 4.82177585e-01, 6.13840856e-03,
          3.19511831e-01, 4.90746170e-01, 4.90746170e-01, 5.95371686e-02,
          1.38277905e-02, 3.55272979e-01, 4.90746170e-01, 1.83555737e-01,
          2.99499687e-02, 3.28722864e-01, 6.81769550e-01, 1.23383537e-01,
          4.66241837e-02, 4.52320017e-02, 1.68854579e-01, 6.41386360e-02,
          9.83178392e-02, 4.28853221e-02, 6.81769550e-01, 4.43123251e-01,
          4.70771551e-01, 3.61194670e-01, 3.72745749e-03, 2.02370416e-02,
          4.70771551e-01, 4.70771551e-01, 5.63427992e-02, 1.61886774e-03,
          4.45191592e-01, 4.45191592e-01, 3.20518129e-02, 1.39138466e-02,
          4.45191592e-01, 4.45191592e-01, 4.45191592e-01, 4.35677581e-02,
          3.81612778e-02, 2.29871839e-01, 1.12378515e-01, 4.37151715e-02,
          7.81133249e-02, 6.76408708e-01, 6.76408708e-01, 5.91115542e-02,
          9.24058165e-03, 3.35823186e-02, 6.90788031e-02, 5.92514098e-01,
          5.92514098e-01, 2.17850223e-01, 1.33955747e-01, 7.19931647e-02,
          4.50413465e-01, 1.16839588e-01, 7.49318395e-03, 1.19771615e-01,
          3.33989114e-01, 9.30083916e-02, 2.33324748e-02, 2.39400029e-01,
          5.17177999e-01, 5.17177999e-01, 5.17177999e-01, 3.79474764e-03,
          4.52342719e-01, 4.52342719e-01, 1.84675694e-01, 1.31504342e-01,
          4.52342719e-01, 3.17054719e-01, 3.82479250e-01, 2.85059363e-01,
          4.65670936e-02, 6.90788031e-02, 5.92514098e-01, 5.92514098e-01,
          2.17850223e-01, 1.33955747e-01, 7.19931647e-02, 4.50413465e-01,
          1.16839588e-01, 7.49318395e-03, 1.19771615e-01, 3.33989114e-01,
          9.30083916e-02, 2.33324748e-02, 2.39400029e-01, 5.17177999e-01,
          5.17177999e-01, 5.17177999e-01, 3.79474764e-03, 4.52342719e-01,
          4.52342719e-01, 1.84675694e-01, 1.31504342e-01, 4.52342719e-01,
          3.17054719e-01, 3.82479250e-01, 2.85059363e-01, 4.65670936e-02,
          7.11303055e-02, 3.68374646e-01, 4.62309033e-01, 4.62309033e-01,
          1.18501835e-01, 4.62309033e-01, 2.21874520e-01, 3.75435591e-01,
          9.59750116e-02, 1.14805311e-01, 3.92955005e-01, 3.65188301e-01,
          1.38411969e-01, 5.56824431e-02, 4.64306414e-01, 4.64306414e-01,
          4.64306414e-01, 1.59393549e-01, 5.01863182e-01, 5.01863182e-01,
          5.01863182e-01, 2.95136660e-01, 5.01848981e-02, 2.39252612e-01,
          2.24803567e-01, 2.02577502e-01, 3.07826344e-02, 7.28024840e-02,
          2.25304946e-01, 3.81804198e-01, 4.20107603e-01, 3.13020051e-01,
          3.81658316e-01, 1.44397035e-01, 4.20107603e-01, 4.20107603e-01,
          2.79575020e-01, 3.47291499e-01, 3.47291499e-01, 3.47291499e-01,
          2.72191823e-01, 3.47291499e-01, 3.47291499e-01, 3.47291499e-01,
          3.47291499e-01, 2.06413656e-01, 4.65375900e-01, 4.65375900e-01,
          2.29747921e-01, 4.59651142e-01, 2.81406313e-01, 1.41782522e-01,
          3.28732312e-01, 2.19489321e-01, 6.81769550e-01, 1.23383537e-01,
          4.66241837e-02, 4.52320017e-02, 1.68854579e-01, 6.41386360e-02,
          9.83178392e-02, 4.28853221e-02, 6.81769550e-01, 4.81392443e-01,
          3.41841616e-02, 2.94571184e-02, 4.77261283e-02, 1.38521448e-01,
          4.81392443e-01, 2.32546031e-01, 4.71588761e-01, 4.81392443e-01,
          4.21489000e-01, 2.99630582e-01, 9.04655159e-02, 4.53054309e-02,
          8.66574943e-02, 4.21489000e-01, 4.21489000e-01, 4.21489000e-01,
          4.21489000e-01, 2.29871839e-01, 1.12378515e-01, 4.37151715e-02,
          7.81133249e-02, 6.76408708e-01, 6.76408708e-01, 5.91115542e-02,
          9.24058165e-03, 3.35823186e-02, 3.04262578e-01, 9.87293348e-02,
          7.00922534e-02, 1.58441499e-01, 5.61032712e-01, 5.61032712e-01,
          3.73659551e-01, 4.72768582e-02, 3.01140815e-01, 3.32778692e-01,
          3.32778692e-01, 3.32778692e-01, 3.32778692e-01, 3.32778692e-01,
          3.32778692e-01, 3.32778692e-01, 3.32778692e-01, 3.32778692e-01,
          4.52342719e-01, 4.52342719e-01, 1.84675694e-01, 1.31504342e-01,
          4.52342719e-01, 3.17054719e-01, 3.82479250e-01, 2.85059363e-01,
          4.65670936e-02, 5.34631312e-01, 5.34631312e-01, 5.45486696e-02,
          6.22413307e-02, 2.32263908e-01, 2.25536406e-01, 1.21716551e-01,
          1.03399195e-01, 5.34631312e-01, 4.45867270e-01, 4.14410889e-01,
          2.40221158e-01, 1.10589966e-01, 1.10297486e-01, 1.52834967e-01,
          4.45867270e-01, 3.49222809e-01, 4.45867270e-01, 4.52342719e-01,
          4.52342719e-01, 1.84675694e-01, 1.31504342e-01, 4.52342719e-01,
          3.17054719e-01, 3.82479250e-01, 2.85059363e-01, 4.65670936e-02,
          5.34631312e-01, 5.34631312e-01, 5.45486696e-02, 6.22413307e-02,
          2.32263908e-01, 2.25536406e-01, 1.21716551e-01, 1.03399195e-01,
          5.34631312e-01, 4.45867270e-01, 4.14410889e-01, 2.40221158e-01,
          1.10589966e-01, 1.10297486e-01, 1.52834967e-01, 4.45867270e-01,
          3.49222809e-01, 4.45867270e-01, 5.01863182e-01, 5.01863182e-01,
          5.01863182e-01, 2.95136660e-01, 5.01848981e-02, 2.39252612e-01,
          2.24803567e-01, 2.02577502e-01, 3.07826344e-02, 5.13769448e-01,
          5.13769448e-01, 7.07116053e-02, 1.72930025e-02, 2.13356353e-02,
          1.34689122e-01, 5.13769448e-01, 3.94514918e-01, 1.53147236e-01,
          7.06564784e-02, 8.32673088e-02, 3.12203392e-02, 1.39047448e-02,
          3.17184441e-02, 6.72964871e-01, 6.72964871e-01, 2.66169488e-01,
          5.07163815e-02, 2.06413656e-01, 4.65375900e-01, 4.65375900e-01,
          2.29747921e-01, 4.59651142e-01, 2.81406313e-01, 1.41782522e-01,
          3.28732312e-01, 2.19489321e-01, 2.78620571e-01, 1.38718843e-01,
          3.36504518e-03, 4.82350141e-02, 6.43297017e-01, 6.43297017e-01,
          2.21549615e-01, 5.15281633e-02, 1.22335158e-01, 5.19664109e-01,
          5.19664109e-01, 2.41159219e-02, 2.12486666e-02, 1.51316240e-01,
          5.19664109e-01, 3.83477360e-01, 1.31297819e-02, 1.16193607e-01 ]
      - [ 4.65414584e-01, 4.65414584e-01, 4.65414584e-01, 1.66620255e-01,
          1.55900344e-01, 3.83113891e-01, 1.39072224e-01, 9.37419832e-02,
          3.44306588e-01, 6.64822519e-01, 6.64822519e-01, 1.02422506e-01,
          2.53743641e-02, 9.65106264e-02, 2.39879340e-01, 1.45097673e-01,
          2.34316289e-02, 9.89545807e-02, 4.60317224e-01, 2.99928397e-01,
          9.80677903e-02, 5.62608577e-02, 4.60317224e-01, 4.60317224e-01,
          2.04312414e-01, 5.78895286e-02, 4.60317224e-01, 1.44782171e-01,
          6.94063544e-01, 6.94063544e-01, 6.06738962e-02, 3.03918943e-02,
          3.14836986e-02, 4.81661446e-02, 2.53051445e-02, 1.02319047e-02,
          3.83764595e-01, 3.83764595e-01, 3.83764595e-01, 5.48540764e-02,
          1.54692575e-01, 3.83764595e-01, 3.83764595e-01, 2.92533547e-01,
          3.83764595e-01, 3.78268719e-01, 2.59646028e-01, 2.86729038e-01,
          2.32978642e-01, 3.78268719e-01, 3.78268719e-01, 3.78268719e-01,
          2.77265221e-01, 3.78268719e-01, 1.44076825e-03, 4.24069911e-01,
          6.36210620e-01, 6.36210620e-01, 4.35862169e-02, 4.24066372e-02,
          2.33578663e-02, 5.98492334e-03, 1.82055333e-03, 1.71140090e-01,
          3.32907706e-01, 4.21736866e-01, 4.21736866e-01, 2.24934727e-01,
          4.21736866e-01, 4.21736866e-01, 2.86531866e-01, 1.07361048e-01,
          4.05001849e-01, 3.58567059e-01, 1.13112196e-01, 3.82319331e-01,
          4.05001849e-01, 4.05001849e-01, 1.55355617e-01, 1.67869002e-01,
          4.05001849e-01, 1.44076825e-03, 4.24069911e-01, 6.36210620e-01,
          6.36210620e-01, 4.35862169e-02, 4.24066372e-02, 2.33578663e-02,
          5.98492334e-03, 1.82055333e-03, 1.71140090e-01, 3.32907706e-01,
          4.21736866e-01, 4.21736866e-01, 2.24934727e-01, 4.21736866e-01,
          4.21736866e-01, 2.86531866e-01, 1.07361048e-01, 4.05001849e-01,
          3.58567059e-01, 1.13112196e-01, 3.82319331e-01, 4.05001849e-01,
          4.05001849e-01, 1.55355617e-01, 1.67869002e-01, 4.05001849e-01,
          1.13294438e-01, 5.54914057e-01, 5.54914057e-01, 5.54914057e-01,
          1.53092399e-01, 1.55710906e-01, 7.87647218e-02, 6.06938265e-02,
          1.62287280e-02, 1.90611444e-02, 8.09827223e-02, 3.66874874e-01,
          4.63091850e-01, 4.63091850e-01, 1.02113985e-01, 4.06733811e-01,
          4.63091850e-01, 1.86101928e-01, 3.05895150e-01, 1.75618395e-01,
          1.55318543e-01, 4.42813247e-01, 4.42813247e-01, 2.26189345e-01,
          1.07439272e-01, 4.42813247e-01, 4.42813247e-01, 2.80516088e-01,
          3.77120823e-01, 3.59459043e-01, 3.77120823e-01, 3.77120823e-01,
          3.77120823e-01, 3.77120823e-01, 2.68265486e-01, 7.25618154e-02,
          2.88798474e-02, 9.01110023e-02, 4.58620936e-01, 4.58620936e-01,
          4.58620936e-01, 4.58620936e-01, 3.30881327e-01, 1.26811534e-01,
          1.39888257e-01, 1.09948970e-01, 1.45518258e-01, 4.66809511e-01,
          4.66809511e-01, 4.66809511e-01, 3.87199432e-01, 2.10456938e-01,
          7.48981237e-02, 3.29415321e-01, 4.60317224e-01, 2.99928397e-01,
          9.80677903e-02, 5.62608577e-02, 4.60317224e-01, 4.60317224e-01,
          2.04312414e-01, 5.78895286e-02, 4.60317224e-01, 3.66874933e-01,
          3.20243150e-01, 3.66874933e-01, 2.02972114e-01, 3.66874933e-01,
          3.66874933e-01, 2.12127373e-01, 3.66874933e-01, 3.66874933e-01,
          3.71587455e-01, 1.88720644e-01, 3.50224108e-01, 5.24025671e-02,
          4.08222154e-02, 2.48872675e-02, 8.38747248e-02, 5.85549653e-01,
          5.85549653e-01, 3.78268719e-01, 2.59646028e-01, 2.86729038e-01,
          2.32978642e-01, 3.78268719e-01, 3.78268719e-01, 3.78268719e-01,
          2.77265221e-01, 3.78268719e-01, 3.42526197e-01, 3.42526197e-01,
          3.42526197e-01, 3.42526197e-01, 3.42526197e-01, 3.42526197e-01,
          3.04853439e-01, 2.87006319e-01, 3.42526197e-01, 1.90450981e-01,
          3.19108099e-01, 4.69576746e-01, 2.50554472e-01, 5.61897382e-02,
          2.52612345e-02, 4.69576746e-01, 4.69576746e-01, 3.59344333e-01,
          4.05001849e-01, 3.58567059e-01, 1.13112196e-01, 3.82319331e-01,
          4.05001849e-01, 4.05001849e-01, 1.55355617e-01, 1.67869002e-01,
          4.05001849e-01, 3.89034182e-01, 2.18492910e-01, 3.89621913e-01,
          3.89621913e-01, 3.89621913e-01, 1.53407440e-01, 1.20253347e-01,
          3.89621913e-01, 3.89621913e-01, 1.44846827e-01, 2.20728114e-01,
          4.95902389e-01, 2.78665245e-01, 7.79789537e-02, 4.95902389e-01,
          4.95902389e-01, 3.18942994e-01, 4.61338870e-02, 4.05001849e-01,
          3.58567059e-01, 1.13112196e-01, 3.82319331e-01, 4.05001849e-01,
          4.05001849e-01, 1.55355617e-01, 1.67869002e-01, 4.05001849e-01,
          3.89034182e-01, 2.18492910e-01, 3.89621913e-01, 3.89621913e-01,
          3.89621913e-01, 1.53407440e-01, 1.20253347e-01, 3.89621913e-01,
          3.89621913e-01, 1.44846827e-01, 2.20728114e-01, 4.95902389e-01,
          2.78665245e-01, 7.79789537e-02, 4.95902389e-01, 4.95902389e-01,
          3.18942994e-01, 4.61338870e-02, 3.05895150e-01, 1.75618395e-01,
          1.55318543e-01, 4.42813247e-01, 4.42813247e-01, 2.26189345e-01,
          1.07439272e-01, 4.42813247e-01, 4.42813247e-01, 4.10784096e-01,
          4.10784096e-01, 3.27360183e-01, 2.00330347e-01, 4.10784096e-01,
          4.10784096e-01, 2.74121642e-01, 2.22126573e-01, 2.21680224e-01,
          3.11939716e-02, 2.79841214e-01, 2.14831397e-01, 7.98261166e-02,
          5.58760166e-01, 5.67707002e-01, 4.76955563e-01, 2.26543266e-02,
          4.25076159e-03, 1.09948970e-01, 1.45518258e-01, 4.66809511e-01,
          4.66809511e-01, 4.66809511e-01, 3.87199432e-01, 2.10456938e-01,
          7.48981237e-02, 3.29415321e-01, 2.40624577e-01, 1.43185973e-01,
          2.32095718e-02, 1.61345899e-01, 6.51145399e-01, 6.51145399e-01,
          1.89804778e-01, 2.58733965e-02, 6.20473325e-02, 1.89040214e-01,
          2.88419306e-01, 4.67889041e-01, 4.67889041e-01, 4.67889041e-01,
          4.67889041e-01, 2.43902821e-02, 5.68001484e-03, 9.84821469e-03 ]
      - [ 4.23839331e-01, 4.23839331e-01, 2.55877584e-01, 2.46892497e-01,
          4.23839331e-01, 4.23839331e-01, 3.65033567e-01, 8.55630562e-02,
          1.01031259e-01, 3.73618938e-02, 4.88918066e-01, 4.88918066e-01,
          1.89070746e-01, 4.88918066e-01, 4.88918066e-01, 2.04746556e-02,
          2.85672508e-02, 2.39639431e-02, 4.33509171e-01, 4.33509171e-01,
          4.33509171e-01, 1.66196540e-01, 4.33509171e-01, 1.57657191e-01,
          4.20244969e-02, 4.21365835e-02, 4.33509171e-01, 3.55029881e-01,
          4.99188840e-01, 1.97779611e-01, 8.47608037e-03, 1.33023351e-01,
          5.21835089e-01, 5.21835089e-01, 1.03357591e-01, 8.58048722e-02,
          7.15509951e-02, 6.54004455e-01, 6.54004455e-01, 4.53230850e-02,
          1.32880867e-01, 3.03147197e-01, 6.63582310e-02, 9.31558013e-02,
          9.06442925e-02, 1.92894265e-02, 6.72234237e-01, 6.72234237e-01,
          1.43050272e-02, 1.04010710e-02, 5.13314456e-02, 2.85060525e-01,
          6.10661171e-02, 3.43933143e-02, 1.42330512e-01, 1.15696914e-01,
          1.28301337e-01, 2.15098411e-02, 1.14569761e-01, 3.25374305e-01,
          6.38889670e-01, 6.38889670e-01, 8.77448320e-02, 3.94471325e-02,
          7.01160669e-01, 7.01160669e-01, 1.83554757e-02, 2.15788204e-02,
          5.49153276e-02, 5.85250072e-02, 2.60300934e-02, 1.64627470e-02,
          6.26888592e-03, 5.91484964e-01, 5.91484964e-01, 5.58471819e-03,
          1.23909314e-03, 1.01391030e-02, 5.38621306e-01, 6.40042350e-02,
          7.88583537e-04, 1.42330512e-01, 1.15696914e-01, 1.28301337e-01,
          2.15098411e-02, 1.14569761e-01, 3.25374305e-01, 6.38889670e-01,
          6.38889670e-01, 8.77448320e-02, 3.94471325e-02, 7.01160669e-01,
          7.01160669e-01, 1.83554757e-02, 2.15788204e-02, 5.49153276e-02,
          5.85250072e-02, 2.60300934e-02, 1.64627470e-02, 6.26888592e-03,
          5.91484964e-01, 5.91484964e-01, 5.58471819e-03, 1.23909314e-03,
          1.01391030e-02, 5.38621306e-01, 6.40042350e-02, 7.88583537e-04,
          1.23357542e-01, 1.67747334e-01, 2.24740669e-01, 2.84427162e-02,
          5.42609468e-02, 4.77774478e-02, 2.64619440e-01, 6.41743362e-01,
          6.41743362e-01, 1.63370535e-01, 6.70145214e-01, 6.70145214e-01,
          1.64062437e-02, 3.82646695e-02, 5.09486832e-02, 6.81563988e-02,
          1.75946116e-01, 1.68816715e-01, 6.41400553e-03, 5.69050431e-01,
          5.69050431e-01, 2.34479699e-02, 6.74653938e-03, 1.88789088e-02,
          5.69050431e-01, 1.47780195e-01, 5.54132834e-03, 5.73571883e-02,
          2.72434235e-01, 2.98290908e-01, 6.42560422e-02, 8.17257985e-02,
          2.52518486e-02, 4.74468917e-02, 6.37749314e-01, 6.37749314e-01,
          1.63828596e-01, 4.81943041e-01, 4.81943041e-01, 1.55759364e-01,
          1.06687635e-01, 5.09848446e-02, 3.20530720e-02, 4.81943041e-01,
          4.81943041e-01, 1.55354559e-01, 4.00196165e-01, 4.00196165e-01,
          4.00196165e-01, 4.00196165e-01, 2.39553571e-01, 4.00196165e-01,
          1.91838264e-01, 2.77298421e-01, 4.33509171e-01, 4.33509171e-01,
          4.33509171e-01, 1.66196540e-01, 4.33509171e-01, 1.57657191e-01,
          4.20244969e-02, 4.21365835e-02, 4.33509171e-01, 2.74187118e-01,
          6.34522215e-02, 3.43830250e-02, 4.26703066e-01, 4.26703066e-01,
          7.05194548e-02, 4.26703066e-01, 4.26703066e-01, 4.26703066e-01,
          2.34711885e-01, 3.17288190e-02, 2.24713027e-01, 6.45867527e-01,
          5.13825953e-01, 4.48390916e-02, 3.75056565e-01, 1.13853477e-01,
          2.23957166e-01, 1.92894265e-02, 6.72234237e-01, 6.72234237e-01,
          1.43050272e-02, 1.04010710e-02, 5.13314456e-02, 2.85060525e-01,
          6.10661171e-02, 3.43933143e-02, 1.95121262e-02, 3.91292460e-02,
          5.02490103e-02, 2.85067130e-02, 1.68598387e-02, 5.52955866e-02,
          8.20698917e-01, 5.54322541e-01, 4.89717759e-02, 5.29183485e-02,
          1.08762093e-01, 5.54366350e-01, 5.54366350e-01, 1.11277297e-01,
          3.89982611e-02, 5.54366350e-01, 1.99577644e-01, 6.42919913e-02,
          6.26888592e-03, 5.91484964e-01, 5.91484964e-01, 5.58471819e-03,
          1.23909314e-03, 1.01391030e-02, 5.38621306e-01, 6.40042350e-02,
          7.88583537e-04, 5.00518735e-03, 2.69047171e-02, 2.59950273e-02,
          1.64590776e-02, 3.70273180e-03, 2.86250841e-02, 9.16197240e-01,
          3.85876715e-01, 3.50167300e-03, 1.20437719e-01, 3.98948371e-01,
          4.95757580e-01, 4.95757580e-01, 1.56076252e-01, 8.40051472e-02,
          4.95757580e-01, 2.04795986e-01, 1.03435203e-01, 6.26888592e-03,
          5.91484964e-01, 5.91484964e-01, 5.58471819e-03, 1.23909314e-03,
          1.01391030e-02, 5.38621306e-01, 6.40042350e-02, 7.88583537e-04,
          5.00518735e-03, 2.69047171e-02, 2.59950273e-02, 1.64590776e-02,
          3.70273180e-03, 2.86250841e-02, 9.16197240e-01, 3.85876715e-01,
          3.50167300e-03, 1.20437719e-01, 3.98948371e-01, 4.95757580e-01,
          4.95757580e-01, 1.56076252e-01, 8.40051472e-02, 4.95757580e-01,
          2.04795986e-01, 1.03435203e-01, 6.41400553e-03, 5.69050431e-01,
          5.69050431e-01, 2.34479699e-02, 6.74653938e-03, 1.88789088e-02,
          5.69050431e-01, 1.47780195e-01, 5.54132834e-03, 2.31986567e-02,
          5.17336093e-02, 2.41181590e-02, 6.43381476e-03, 2.60511553e-03,
          6.98001403e-03, 8.54628563e-01, 5.06925941e-01, 1.46563556e-02,
          5.26164293e-01, 5.26164293e-01, 3.44245434e-01, 6.54250905e-02,
          6.64675012e-02, 1.40168682e-01, 5.26164293e-01, 1.00002103e-01,
          8.57184753e-02, 1.55354559e-01, 4.00196165e-01, 4.00196165e-01,
          4.00196165e-01, 4.00196165e-01, 2.39553571e-01, 4.00196165e-01,
          1.91838264e-01, 2.77298421e-01, 5.81174195e-01, 1.08573109e-01,
          2.78183017e-02, 2.99825557e-02, 1.42917246e-01, 2.56640941e-01,
          5.81174195e-01, 4.33008045e-01, 1.77265376e-01, 6.96280718e-01,
          6.96280718e-01, 3.08803413e-02, 2.08882093e-02, 4.46288884e-02,
          3.00887097e-02, 7.22258314e-02, 4.35827896e-02, 1.09693982e-01 ]
      - [ 2.36996859e-01, 4.32363242e-01, 4.32363242e-01, 3.75306547e-01,
          2.94801623e-01, 2.84763545e-01, 4.32363242e-01, 2.37674385e-01,
          1.15574010e-01, 1.01104036e-01, 4.13462162e-01, 4.13462162e-01,
          3.80983293e-01, 3.45710330e-02, 2.53427655e-01, 4.13462162e-01,
          4.13462162e-01, 3.02117169e-01, 3.98405075e-01, 3.98405075e-01,
          3.98405075e-01, 3.38285081e-02, 1.26288235e-01, 1.62994936e-01,
          3.98405075e-01, 3.98405075e-01, 3.98405075e-01, 1.67138800e-01,
          2.35813379e-01, 4.60581213e-01, 4.60581213e-01, 1.55774981e-01,
          1.37704507e-01, 4.60581213e-01, 4.60581213e-01, 1.41731009e-01,
          2.03269780e-01, 1.09352924e-01, 5.23180544e-01, 5.23180544e-01,
          5.23180544e-01, 7.81263858e-02, 5.54466583e-02, 1.96896121e-01,
          2.69069850e-01, 4.30663019e-01, 1.52767450e-01, 1.18556499e-01,
          4.30663019e-01, 4.30663019e-01, 4.30663019e-01, 7.33539760e-02,
          1.59907490e-01, 4.30663019e-01, 1.66259661e-01, 4.25569773e-01,
          4.25569773e-01, 7.75766522e-02, 3.34118545e-01, 5.53515702e-02,
          4.25569773e-01, 4.25569773e-01, 3.50643784e-01, 5.83864450e-01,
          5.83864450e-01, 2.39402309e-01, 1.31952435e-01, 2.98098356e-01,
          3.21295977e-01, 6.17883913e-02, 1.35661252e-02, 2.03848511e-01,
          5.10671794e-01, 2.33492449e-01, 6.75226981e-03, 1.75965831e-01,
          5.10671794e-01, 3.55451077e-01, 1.77309159e-02, 1.88329536e-02,
          5.10671794e-01, 1.66259661e-01, 4.25569773e-01, 4.25569773e-01,
          7.75766522e-02, 3.34118545e-01, 5.53515702e-02, 4.25569773e-01,
          4.25569773e-01, 3.50643784e-01, 5.83864450e-01, 5.83864450e-01,
          2.39402309e-01, 1.31952435e-01, 2.98098356e-01, 3.21295977e-01,
          6.17883913e-02, 1.35661252e-02, 2.03848511e-01, 5.10671794e-01,
          2.33492449e-01, 6.75226981e-03, 1.75965831e-01, 5.10671794e-01,
          3.55451077e-01, 1.77309159e-02, 1.88329536e-02, 5.10671794e-01,
          1.12814166e-01, 3.94085020e-01, 3.94085020e-01, 3.94085020e-01,
          2.26470068e-01, 1.51432687e-02, 3.94085020e-01, 3.94085020e-01,
          3.94085020e-01, 2.18265221e-01, 4.28788394e-01, 4.28788394e-01,
          1.03474177e-01, 8.87358710e-02, 4.28788394e-01, 4.28788394e-01,
          4.28788394e-01, 1.00988314e-01, 2.31805995e-01, 6.32369071e-02,
          1.86746027e-02, 2.32459441e-01, 4.90479469e-01, 4.90479469e-01,
          3.66923034e-01, 3.80252868e-01, 3.50167245e-01, 1.92379594e-01,
          1.15996897e-01, 4.48218167e-01, 4.48218167e-01, 3.35811555e-01,
          1.19545534e-01, 1.19995952e-01, 4.48218167e-01, 4.48218167e-01,
          4.50500697e-02, 1.02313355e-01, 4.84444231e-01, 4.84444231e-01,
          1.15238205e-01, 2.93673687e-02, 1.72559366e-01, 4.84444231e-01,
          4.84444231e-01, 4.61528629e-01, 6.71324693e-03, 3.06161065e-02,
          4.61528629e-01, 4.61528629e-01, 6.01740591e-02, 3.94606069e-02,
          3.70398134e-01, 4.61528629e-01, 3.98405075e-01, 3.98405075e-01,
          3.98405075e-01, 3.38285081e-02, 1.26288235e-01, 1.62994936e-01,
          3.98405075e-01, 3.98405075e-01, 3.98405075e-01, 3.75285715e-01,
          3.75285715e-01, 3.75285715e-01, 3.75285715e-01, 4.61308286e-02,
          9.08136293e-02, 3.75285715e-01, 3.75285715e-01, 3.75285715e-01,
          7.30614588e-02, 2.80927449e-01, 5.05844891e-01, 2.40660980e-01,
          2.07426604e-02, 2.87761182e-01, 5.05844891e-01, 5.05844891e-01,
          4.35688384e-02, 4.30663019e-01, 1.52767450e-01, 1.18556499e-01,
          4.30663019e-01, 4.30663019e-01, 4.30663019e-01, 7.33539760e-02,
          1.59907490e-01, 4.30663019e-01, 4.07292515e-01, 1.97985277e-01,
          9.10784155e-02, 4.07292515e-01, 4.07292515e-01, 4.07292515e-01,
          2.97834963e-01, 1.74057513e-01, 4.07292515e-01, 1.53584510e-01,
          1.37595654e-01, 1.43801898e-01, 2.98955571e-02, 2.44588941e-01,
          5.66192627e-01, 5.66192627e-01, 4.69850421e-01, 9.23103839e-02,
          5.10671794e-01, 2.33492449e-01, 6.75226981e-03, 1.75965831e-01,
          5.10671794e-01, 3.55451077e-01, 1.77309159e-02, 1.88329536e-02,
          5.10671794e-01, 3.90476316e-01, 1.63690571e-03, 3.17826234e-02,
          4.54175532e-01, 4.54175532e-01, 1.27600938e-01, 2.43941732e-02,
          4.54175532e-01, 4.54175532e-01, 8.53057653e-02, 3.60514745e-02,
          5.26685081e-02, 1.57673135e-01, 1.23565070e-01, 1.68298721e-01,
          4.63016331e-01, 5.91567636e-01, 5.91567636e-01, 5.10671794e-01,
          2.33492449e-01, 6.75226981e-03, 1.75965831e-01, 5.10671794e-01,
          3.55451077e-01, 1.77309159e-02, 1.88329536e-02, 5.10671794e-01,
          3.90476316e-01, 1.63690571e-03, 3.17826234e-02, 4.54175532e-01,
          4.54175532e-01, 1.27600938e-01, 2.43941732e-02, 4.54175532e-01,
          4.54175532e-01, 8.53057653e-02, 3.60514745e-02, 5.26685081e-02,
          1.57673135e-01, 1.23565070e-01, 1.68298721e-01, 4.63016331e-01,
          5.91567636e-01, 5.91567636e-01, 2.31805995e-01, 6.32369071e-02,
          1.86746027e-02, 2.32459441e-01, 4.90479469e-01, 4.90479469e-01,
          3.66923034e-01, 3.80252868e-01, 3.50167245e-01, 1.70137390e-01,
          4.15925950e-01, 4.18344647e-01, 4.18344647e-01, 4.18344647e-01,
          5.77770509e-02, 1.71992570e-01, 4.18344647e-01, 2.46802032e-01,
          3.69314626e-02, 2.15275481e-01, 5.18959820e-01, 2.17319980e-01,
          6.60716696e-03, 1.63634583e-01, 5.18959820e-01, 5.18959820e-01,
          2.55154699e-01, 4.61528629e-01, 6.71324693e-03, 3.06161065e-02,
          4.61528629e-01, 4.61528629e-01, 6.01740591e-02, 3.94606069e-02,
          3.70398134e-01, 4.61528629e-01, 4.16836262e-01, 4.16836262e-01,
          2.45423362e-01, 3.14252898e-02, 4.16836262e-01, 4.16836262e-01,
          2.56016374e-01, 1.75816324e-02, 4.16836262e-01, 4.73341197e-01,
          4.73341197e-01, 1.70897827e-01, 1.52914003e-02, 1.24234073e-01,
          4.73341197e-01, 4.73341197e-01, 2.28640705e-01, 4.37512435e-02 ]
      - [ 3.47205073e-01, 4.66176271e-01, 3.85725796e-01, 4.83350642e-02,
          4.66176271e-01, 4.66176271e-01, 2.67455548e-01, 1.23181269e-02,
          5.14510414e-03, 1.34531986e-02, 4.95549440e-01, 4.95549440e-01,
          9.98102650e-02, 4.95549440e-01, 4.95549440e-01, 1.51249971e-02,
          4.24084403e-02, 2.45598312e-02, 4.68347579e-01, 4.95500088e-01,
          4.95500088e-01, 7.48581514e-02, 4.95500088e-01, 1.15474299e-01,
          2.29900982e-02, 3.65121216e-02, 1.35428905e-01, 2.97961026e-01,
          4.20656353e-01, 1.29480854e-01, 9.66992900e-02, 1.79500923e-01,
          5.72506547e-01, 5.72506547e-01, 9.55127180e-02, 7.45914727e-02,
          2.20744200e-02, 6.50851190e-01, 6.50851190e-01, 3.33404154e-01,
          1.22574486e-01, 1.35434002e-01, 2.74745021e-02, 1.81177445e-02,
          1.38606867e-02, 1.79678854e-02, 6.93409383e-01, 6.93409383e-01,
          1.67767983e-02, 3.81521648e-03, 3.76664801e-03, 1.63399264e-01,
          6.04035258e-02, 2.15385798e-02, 1.48179188e-01, 1.58472121e-01,
          3.64677936e-01, 2.30412409e-01, 1.51596248e-01, 1.62076414e-01,
          5.90529144e-01, 5.90529144e-01, 1.19388573e-01, 8.73466656e-02,
          6.96390748e-01, 6.96390748e-01, 6.52379543e-02, 2.71811988e-02,
          1.88777000e-02, 9.34510771e-03, 7.78757036e-03, 9.99971479e-02,
          4.24563605e-03, 6.01211727e-01, 6.01211727e-01, 2.05345228e-02,
          3.87713243e-03, 8.73440318e-03, 5.15723348e-01, 6.75432459e-02,
          4.69657267e-03, 1.48179188e-01, 1.58472121e-01, 3.64677936e-01,
          2.30412409e-01, 1.51596248e-01, 1.62076414e-01, 5.90529144e-01,
          5.90529144e-01, 1.19388573e-01, 8.73466656e-02, 6.96390748e-01,
          6.96390748e-01, 6.52379543e-02, 2.71811988e-02, 1.88777000e-02,
          9.34510771e-03, 7.78757036e-03, 9.99971479e-02, 4.24563605e-03,
          6.01211727e-01, 6.01211727e-01, 2.05345228e-02, 3.87713243e-03,
          8.73440318e-03, 5.15723348e-01, 6.75432459e-02, 4.69657267e-03,
          1.09531306e-01, 8.85260254e-02, 1.80726632e-01, 1.24643005e-01,
          2.24846024e-02, 3.14764492e-02, 3.27980489e-01, 6.38952792e-01,
          6.38952792e-01, 8.07147846e-02, 6.99748755e-01, 6.99748755e-01,
          2.20052004e-02, 1.90984793e-02, 7.38321710e-03, 1.17393760e-02,
          3.21098492e-02, 7.16320500e-02, 9.36054718e-03, 5.70844471e-01,
          5.70844471e-01, 1.95683725e-03, 1.34437382e-02, 3.52426879e-02,
          5.70844471e-01, 1.23267978e-01, 5.73217869e-04, 6.96663484e-02,
          4.05093916e-02, 1.08108982e-01, 6.12513758e-02, 2.00884864e-02,
          1.10743130e-02, 3.78161371e-02, 6.96118236e-01, 6.96118236e-01,
          1.73471197e-01, 4.82497692e-01, 4.82497692e-01, 1.65695742e-01,
          7.88528994e-02, 1.28543042e-02, 5.87502774e-03, 4.82497692e-01,
          4.82497692e-01, 2.72530280e-02, 4.25228268e-01, 4.25228268e-01,
          4.25228268e-01, 4.25228268e-01, 2.65124291e-01, 4.25228268e-01,
          9.59416926e-02, 1.06856532e-01, 4.68347579e-01, 4.95500088e-01,
          4.95500088e-01, 7.48581514e-02, 4.95500088e-01, 1.15474299e-01,
          2.29900982e-02, 3.65121216e-02, 1.35428905e-01, 3.14321101e-01,
          9.60987657e-02, 6.31509423e-02, 3.24599415e-01, 3.35425675e-01,
          1.67717114e-01, 4.88509744e-01, 4.88509744e-01, 3.99765342e-01,
          2.25437790e-01, 2.01652367e-02, 1.40833437e-01, 5.38082063e-01,
          5.38082063e-01, 7.91243762e-02, 5.04615009e-01, 1.74545467e-01,
          2.30512455e-01, 1.79678854e-02, 6.93409383e-01, 6.93409383e-01,
          1.67767983e-02, 3.81521648e-03, 3.76664801e-03, 1.63399264e-01,
          6.04035258e-02, 2.15385798e-02, 1.87234096e-02, 6.31952956e-02,
          4.46520261e-02, 1.17393201e-02, 4.90806252e-03, 6.72636703e-02,
          8.59535635e-01, 4.90839601e-01, 2.59548854e-02, 3.10368445e-02,
          1.73687622e-01, 5.07068753e-01, 5.07068753e-01, 1.36468798e-01,
          2.66064107e-01, 5.07068753e-01, 3.18852961e-01, 3.69867869e-02,
          4.24563605e-03, 6.01211727e-01, 6.01211727e-01, 2.05345228e-02,
          3.87713243e-03, 8.73440318e-03, 5.15723348e-01, 6.75432459e-02,
          4.69657267e-03, 1.75975182e-03, 3.09027508e-02, 3.02088428e-02,
          1.81526900e-03, 1.47064740e-03, 7.98808783e-02, 9.20184612e-01,
          3.68430048e-01, 9.04215593e-03, 1.64424758e-02, 2.84236576e-02,
          4.52142730e-02, 6.20695464e-02, 6.58693165e-02, 3.00661474e-01,
          6.63912296e-01, 6.63912296e-01, 1.00506939e-01, 4.24563605e-03,
          6.01211727e-01, 6.01211727e-01, 2.05345228e-02, 3.87713243e-03,
          8.73440318e-03, 5.15723348e-01, 6.75432459e-02, 4.69657267e-03,
          1.75975182e-03, 3.09027508e-02, 3.02088428e-02, 1.81526900e-03,
          1.47064740e-03, 7.98808783e-02, 9.20184612e-01, 3.68430048e-01,
          9.04215593e-03, 1.64424758e-02, 2.84236576e-02, 4.52142730e-02,
          6.20695464e-02, 6.58693165e-02, 3.00661474e-01, 6.63912296e-01,
          6.63912296e-01, 1.00506939e-01, 9.36054718e-03, 5.70844471e-01,
          5.70844471e-01, 1.95683725e-03, 1.34437382e-02, 3.52426879e-02,
          5.70844471e-01, 1.23267978e-01, 5.73217869e-04, 5.40594198e-03,
          2.51885895e-02, 9.21561383e-03, 1.06682972e-04, 6.29724329e-03,
          1.75548628e-01, 9.65783596e-01, 1.61303952e-01, 1.69483537e-03,
          3.34490508e-01, 4.27887291e-01, 2.78297573e-01, 6.29222468e-02,
          3.58225822e-01, 4.27887291e-01, 4.27887291e-01, 3.45819533e-01,
          7.24812970e-02, 2.72530280e-02, 4.25228268e-01, 4.25228268e-01,
          4.25228268e-01, 4.25228268e-01, 2.65124291e-01, 4.25228268e-01,
          9.59416926e-02, 1.06856532e-01, 5.67827702e-01, 1.38505474e-01,
          4.61260602e-03, 2.89141014e-02, 5.59739508e-02, 2.45687455e-01,
          7.06723154e-01, 2.23743632e-01, 1.93550333e-01, 6.92412078e-01,
          6.92412078e-01, 4.71830778e-02, 1.30423512e-02, 1.79984868e-02,
          3.36337648e-02, 7.23538175e-02, 1.09148070e-01, 1.14974715e-01 ]
      - [ 4.85190451e-01, 4.85190451e-01, 1.05336234e-01, 7.01838583e-02,
          3.41734439e-01, 4.85190451e-01, 3.66339564e-01, 9.92869660e-02,
          1.09809786e-01, 1.68610066e-01, 4.80222136e-01, 4.80222136e-01,
          2.03528732e-01, 4.80222136e-01, 4.80222136e-01, 4.89192717e-02,
          1.36566479e-02, 1.78139620e-02, 3.27122003e-01, 5.70344090e-01,
          5.70344090e-01, 1.32811144e-01, 2.74145067e-01, 3.20312642e-02,
          3.82129475e-02, 1.89709682e-02, 3.75593901e-01, 1.83691099e-01,
          1.76789761e-01, 1.70374751e-01, 7.59458616e-02, 2.83005774e-01,
          6.03423119e-01, 6.03423119e-01, 2.84802318e-01, 6.88390061e-02,
          4.92816269e-02, 6.72598720e-01, 6.72598720e-01, 2.79898137e-01,
          4.52359468e-02, 4.07453664e-02, 2.88217273e-02, 4.30406965e-02,
          3.66892070e-02, 7.14348117e-03, 6.89273119e-01, 6.89273119e-01,
          2.68923696e-02, 1.95474760e-03, 6.95919571e-03, 1.96663544e-01,
          5.80454431e-02, 7.21298996e-03, 7.87923932e-02, 2.43188724e-01,
          4.33907986e-01, 1.43948570e-01, 2.14629441e-01, 1.75289035e-01,
          5.53789496e-01, 5.53789496e-01, 1.73106268e-01, 3.19415815e-02,
          7.00205028e-01, 7.00205028e-01, 2.88128331e-02, 3.53121385e-03,
          8.03238829e-04, 3.73849161e-02, 8.21112916e-02, 4.93203327e-02,
          1.23788733e-02, 5.71708918e-01, 5.71708918e-01, 1.28087131e-02,
          4.50666668e-03, 1.79846026e-02, 5.71708918e-01, 1.13961987e-01,
          9.45337489e-03, 7.87923932e-02, 2.43188724e-01, 4.33907986e-01,
          1.43948570e-01, 2.14629441e-01, 1.75289035e-01, 5.53789496e-01,
          5.53789496e-01, 1.73106268e-01, 3.19415815e-02, 7.00205028e-01,
          7.00205028e-01, 2.88128331e-02, 3.53121385e-03, 8.03238829e-04,
          3.73849161e-02, 8.21112916e-02, 4.93203327e-02, 1.23788733e-02,
          5.71708918e-01, 5.71708918e-01, 1.28087131e-02, 4.50666668e-03,
          1.79846026e-02, 5.71708918e-01, 1.13961987e-01, 9.45337489e-03,
          9.16079506e-02, 1.82720020e-01, 2.36140952e-01, 2.66729053e-02,
          1.27590969e-01, 7.44849220e-02, 2.86792517e-01, 6.29042745e-01,
          6.29042745e-01, 5.54603478e-03, 6.86183333e-01, 6.86183333e-01,
          9.26805940e-03, 3.80515796e-03, 5.25393412e-02, 1.99364528e-01,
          9.05777141e-02, 2.47536842e-02, 1.41036846e-02, 5.62416255e-01,
          5.62416255e-01, 1.06398147e-02, 4.71370853e-03, 5.98964915e-02,
          5.62416255e-01, 2.03042895e-01, 1.72983166e-02, 5.47932982e-02,
          8.68586823e-02, 7.60971680e-02, 7.30724493e-03, 3.02828606e-02,
          4.33749817e-02, 3.09129376e-02, 6.97457016e-01, 6.97457016e-01,
          1.42899051e-01, 4.97832268e-01, 4.97832268e-01, 1.66464448e-01,
          8.85433406e-02, 3.26171070e-02, 3.08592785e-02, 4.39920843e-01,
          4.97832268e-01, 4.15011533e-02, 4.32312965e-01, 4.32312965e-01,
          3.76485258e-01, 4.32312965e-01, 2.97728211e-01, 4.32312965e-01,
          1.04467049e-01, 7.13068768e-02, 3.27122003e-01, 5.70344090e-01,
          5.70344090e-01, 1.32811144e-01, 2.74145067e-01, 3.20312642e-02,
          3.82129475e-02, 1.89709682e-02, 3.75593901e-01, 2.32438132e-01,
          1.09423399e-01, 7.72837326e-02, 2.76458532e-01, 2.62082368e-01,
          1.45916656e-01, 5.02196014e-01, 5.02196014e-01, 5.02196014e-01,
          2.77762800e-01, 2.11517178e-02, 1.26761243e-01, 5.53133130e-01,
          4.46331769e-01, 8.04794729e-02, 5.37798703e-01, 1.49935290e-01,
          2.78307647e-01, 7.14348117e-03, 6.89273119e-01, 6.89273119e-01,
          2.68923696e-02, 1.95474760e-03, 6.95919571e-03, 1.96663544e-01,
